substance,embedding_0,embedding_1,embedding_2,embedding_3,embedding_4,embedding_5,embedding_6,embedding_7,embedding_8,embedding_9,embedding_10,embedding_11,embedding_12,embedding_13,embedding_14,embedding_15,embedding_16,embedding_17,embedding_18,embedding_19,embedding_20,embedding_21,embedding_22,embedding_23,embedding_24,embedding_25,embedding_26,embedding_27,embedding_28,embedding_29,embedding_30,embedding_31,embedding_32,embedding_33,embedding_34,embedding_35,embedding_36,embedding_37,embedding_38,embedding_39,embedding_40,embedding_41,embedding_42,embedding_43,embedding_44,embedding_45,embedding_46,embedding_47,embedding_48,embedding_49,embedding_50,embedding_51,embedding_52,embedding_53,embedding_54,embedding_55,embedding_56,embedding_57,embedding_58,embedding_59,embedding_60,embedding_61,embedding_62,embedding_63,embedding_64,embedding_65,embedding_66,embedding_67,embedding_68,embedding_69,embedding_70,embedding_71,embedding_72,embedding_73,embedding_74,embedding_75,embedding_76,embedding_77,embedding_78,embedding_79,embedding_80,embedding_81,embedding_82,embedding_83,embedding_84,embedding_85,embedding_86,embedding_87,embedding_88,embedding_89,embedding_90,embedding_91,embedding_92,embedding_93,embedding_94,embedding_95,embedding_96,embedding_97,embedding_98,embedding_99,embedding_100,embedding_101,embedding_102,embedding_103,embedding_104,embedding_105,embedding_106,embedding_107,embedding_108,embedding_109,embedding_110,embedding_111,embedding_112,embedding_113,embedding_114,embedding_115,embedding_116,embedding_117,embedding_118,embedding_119,embedding_120,embedding_121,embedding_122,embedding_123,embedding_124,embedding_125,embedding_126,embedding_127,embedding_128,embedding_129,embedding_130,embedding_131,embedding_132,embedding_133,embedding_134,embedding_135,embedding_136,embedding_137,embedding_138,embedding_139,embedding_140,embedding_141,embedding_142,embedding_143,embedding_144,embedding_145,embedding_146,embedding_147,embedding_148,embedding_149,embedding_150,embedding_151,embedding_152,embedding_153,embedding_154,embedding_155,embedding_156,embedding_157,embedding_158,embedding_159,embedding_160,embedding_161,embedding_162,embedding_163,embedding_164,embedding_165,embedding_166,embedding_167,embedding_168,embedding_169,embedding_170,embedding_171,embedding_172,embedding_173,embedding_174,embedding_175,embedding_176,embedding_177,embedding_178,embedding_179,embedding_180,embedding_181,embedding_182,embedding_183,embedding_184,embedding_185,embedding_186,embedding_187,embedding_188,embedding_189,embedding_190,embedding_191,embedding_192,embedding_193,embedding_194,embedding_195,embedding_196,embedding_197,embedding_198,embedding_199,embedding_200,embedding_201,embedding_202,embedding_203,embedding_204,embedding_205,embedding_206,embedding_207,embedding_208,embedding_209,embedding_210,embedding_211,embedding_212,embedding_213,embedding_214,embedding_215,embedding_216,embedding_217,embedding_218,embedding_219,embedding_220,embedding_221,embedding_222,embedding_223,embedding_224,embedding_225,embedding_226,embedding_227,embedding_228,embedding_229,embedding_230,embedding_231,embedding_232,embedding_233,embedding_234,embedding_235,embedding_236,embedding_237,embedding_238,embedding_239,embedding_240,embedding_241,embedding_242,embedding_243,embedding_244,embedding_245,embedding_246,embedding_247,embedding_248,embedding_249,embedding_250,embedding_251,embedding_252,embedding_253,embedding_254,embedding_255,embedding_256,embedding_257,embedding_258,embedding_259,embedding_260,embedding_261,embedding_262,embedding_263,embedding_264,embedding_265,embedding_266,embedding_267,embedding_268,embedding_269,embedding_270,embedding_271,embedding_272,embedding_273,embedding_274,embedding_275,embedding_276,embedding_277,embedding_278,embedding_279,embedding_280,embedding_281,embedding_282,embedding_283,embedding_284,embedding_285,embedding_286,embedding_287,embedding_288,embedding_289,embedding_290,embedding_291,embedding_292,embedding_293,embedding_294,embedding_295,embedding_296,embedding_297,embedding_298,embedding_299,embedding_300,embedding_301,embedding_302,embedding_303,embedding_304,embedding_305,embedding_306,embedding_307,embedding_308,embedding_309,embedding_310,embedding_311,embedding_312,embedding_313,embedding_314,embedding_315,embedding_316,embedding_317,embedding_318,embedding_319,embedding_320,embedding_321,embedding_322,embedding_323,embedding_324,embedding_325,embedding_326,embedding_327,embedding_328,embedding_329,embedding_330,embedding_331,embedding_332,embedding_333,embedding_334,embedding_335,embedding_336,embedding_337,embedding_338,embedding_339,embedding_340,embedding_341,embedding_342,embedding_343,embedding_344,embedding_345,embedding_346,embedding_347,embedding_348,embedding_349,embedding_350,embedding_351,embedding_352,embedding_353,embedding_354,embedding_355,embedding_356,embedding_357,embedding_358,embedding_359,embedding_360,embedding_361,embedding_362,embedding_363,embedding_364,embedding_365,embedding_366,embedding_367,embedding_368,embedding_369,embedding_370,embedding_371,embedding_372,embedding_373,embedding_374,embedding_375,embedding_376,embedding_377,embedding_378,embedding_379,embedding_380,embedding_381,embedding_382,embedding_383,embedding_384,embedding_385,embedding_386,embedding_387,embedding_388,embedding_389,embedding_390,embedding_391,embedding_392,embedding_393,embedding_394,embedding_395,embedding_396,embedding_397,embedding_398,embedding_399,embedding_400,embedding_401,embedding_402,embedding_403,embedding_404,embedding_405,embedding_406,embedding_407,embedding_408,embedding_409,embedding_410,embedding_411,embedding_412,embedding_413,embedding_414,embedding_415,embedding_416,embedding_417,embedding_418,embedding_419,embedding_420,embedding_421,embedding_422,embedding_423,embedding_424,embedding_425,embedding_426,embedding_427,embedding_428,embedding_429,embedding_430,embedding_431,embedding_432,embedding_433,embedding_434,embedding_435,embedding_436,embedding_437,embedding_438,embedding_439,embedding_440,embedding_441,embedding_442,embedding_443,embedding_444,embedding_445,embedding_446,embedding_447,embedding_448,embedding_449,embedding_450,embedding_451,embedding_452,embedding_453,embedding_454,embedding_455,embedding_456,embedding_457,embedding_458,embedding_459,embedding_460,embedding_461,embedding_462,embedding_463,embedding_464,embedding_465,embedding_466,embedding_467,embedding_468,embedding_469,embedding_470,embedding_471,embedding_472,embedding_473,embedding_474,embedding_475,embedding_476,embedding_477,embedding_478,embedding_479,embedding_480,embedding_481,embedding_482,embedding_483,embedding_484,embedding_485,embedding_486,embedding_487,embedding_488,embedding_489,embedding_490,embedding_491,embedding_492,embedding_493,embedding_494,embedding_495,embedding_496,embedding_497,embedding_498,embedding_499,embedding_500,embedding_501,embedding_502,embedding_503,embedding_504,embedding_505,embedding_506,embedding_507,embedding_508,embedding_509,embedding_510,embedding_511,embedding_512,embedding_513,embedding_514,embedding_515,embedding_516,embedding_517,embedding_518,embedding_519,embedding_520,embedding_521,embedding_522,embedding_523,embedding_524,embedding_525,embedding_526,embedding_527,embedding_528,embedding_529,embedding_530,embedding_531,embedding_532,embedding_533,embedding_534,embedding_535,embedding_536,embedding_537,embedding_538,embedding_539,embedding_540,embedding_541,embedding_542,embedding_543,embedding_544,embedding_545,embedding_546,embedding_547,embedding_548,embedding_549,embedding_550,embedding_551,embedding_552,embedding_553,embedding_554,embedding_555,embedding_556,embedding_557,embedding_558,embedding_559,embedding_560,embedding_561,embedding_562,embedding_563,embedding_564,embedding_565,embedding_566,embedding_567,embedding_568,embedding_569,embedding_570,embedding_571,embedding_572,embedding_573,embedding_574,embedding_575,embedding_576,embedding_577,embedding_578,embedding_579,embedding_580,embedding_581,embedding_582,embedding_583,embedding_584,embedding_585,embedding_586,embedding_587,embedding_588,embedding_589,embedding_590,embedding_591,embedding_592,embedding_593,embedding_594,embedding_595,embedding_596,embedding_597,embedding_598,embedding_599,embedding_600,embedding_601,embedding_602,embedding_603,embedding_604,embedding_605,embedding_606,embedding_607,embedding_608,embedding_609,embedding_610,embedding_611,embedding_612,embedding_613,embedding_614,embedding_615,embedding_616,embedding_617,embedding_618,embedding_619,embedding_620,embedding_621,embedding_622,embedding_623,embedding_624,embedding_625,embedding_626,embedding_627,embedding_628,embedding_629,embedding_630,embedding_631,embedding_632,embedding_633,embedding_634,embedding_635,embedding_636,embedding_637,embedding_638,embedding_639,embedding_640,embedding_641,embedding_642,embedding_643,embedding_644,embedding_645,embedding_646,embedding_647,embedding_648,embedding_649,embedding_650,embedding_651,embedding_652,embedding_653,embedding_654,embedding_655,embedding_656,embedding_657,embedding_658,embedding_659,embedding_660,embedding_661,embedding_662,embedding_663,embedding_664,embedding_665,embedding_666,embedding_667,embedding_668,embedding_669,embedding_670,embedding_671,embedding_672,embedding_673,embedding_674,embedding_675,embedding_676,embedding_677,embedding_678,embedding_679,embedding_680,embedding_681,embedding_682,embedding_683,embedding_684,embedding_685,embedding_686,embedding_687,embedding_688,embedding_689,embedding_690,embedding_691,embedding_692,embedding_693,embedding_694,embedding_695,embedding_696,embedding_697,embedding_698,embedding_699,embedding_700,embedding_701,embedding_702,embedding_703,embedding_704,embedding_705,embedding_706,embedding_707,embedding_708,embedding_709,embedding_710,embedding_711,embedding_712,embedding_713,embedding_714,embedding_715,embedding_716,embedding_717,embedding_718,embedding_719,embedding_720,embedding_721,embedding_722,embedding_723,embedding_724,embedding_725,embedding_726,embedding_727,embedding_728,embedding_729,embedding_730,embedding_731,embedding_732,embedding_733,embedding_734,embedding_735,embedding_736,embedding_737,embedding_738,embedding_739,embedding_740,embedding_741,embedding_742,embedding_743,embedding_744,embedding_745,embedding_746,embedding_747,embedding_748,embedding_749,embedding_750,embedding_751,embedding_752,embedding_753,embedding_754,embedding_755,embedding_756,embedding_757,embedding_758,embedding_759,embedding_760,embedding_761,embedding_762,embedding_763,embedding_764,embedding_765,embedding_766,embedding_767
1B-LSD,-0.015617985,0.010021893,-0.008611517,-0.020230671,0.0019474416,0.0044986964,-0.06031282,0.009616124,-0.020067055,0.005326249,0.0042680586,0.018345522,-0.019182747,-0.017532967,0.024378799,-0.049203876,-0.0021092608,-0.0011076459,-0.028544994,-0.002129731,-0.008763236,-0.013863843,0.0010429715,-8.5449654e-05,0.014501742,-0.040447626,-0.0010662383,0.026622904,0.018598478,-0.0041061956,-0.022728344,0.011696056,-0.010206948,-0.0026976129,1.7949646e-06,-0.0017115643,0.008028416,-0.0072047617,0.012704295,0.0179165,0.024312384,-0.008573881,0.004387646,-0.0012151286,-0.015685827,-0.010977179,0.012570888,0.0075299265,-0.018073896,-0.00705546,-0.0033677786,-0.0035724943,-0.032491542,0.01100355,0.050516043,0.03938584,0.004510798,-0.038960513,0.040359948,-0.018390244,-0.025489677,-0.016074568,0.011554215,0.013888372,0.044946995,0.029633112,0.0143439565,0.016075326,0.0044808704,0.009933028,-0.026615655,-0.016595526,-0.012095436,0.024946077,-0.029995928,-0.03471181,-0.015339269,0.007988379,0.023739843,-0.008735758,-0.022946198,0.03573099,0.0065610576,-0.00028674846,-0.00046477857,-0.0027797683,0.01547265,-0.0075878515,0.012614267,0.0018840843,0.012008854,-0.010362028,-0.0068360665,-0.0005543689,-0.015334735,-0.0049342834,0.0009564109,0.0075545185,0.00021754098,0.006960818,0.02537499,0.028076895,-0.033942398,0.024592632,-0.009004697,-0.02326925,0.0018195647,-0.022476222,-0.02541723,0.008140096,-0.0034414951,0.010889081,0.010678057,0.01010129,-0.023699777,-0.030076863,-0.0008405718,-0.0144389225,0.0026314904,0.004930387,-0.037530355,0.021481855,0.015890248,0.00052611716,0.027360601,-0.005164392,0.003534317,-0.002775365,0.009498081,-0.026692782,-0.024083745,0.011834461,-0.022259057,-0.0032320842,-0.007260185,0.018647114,-0.00010516234,-0.00086351397,-0.008821593,-0.0011523542,0.03072424,0.017372036,0.02662905,0.006610934,-0.010832696,0.014184058,0.012963945,0.009633939,0.0030953446,-0.0089207385,0.021955214,0.036841385,-0.046643358,-0.0009001235,-0.01949854,0.022662614,0.022949131,-0.008026447,-0.008097196,0.027846092,0.0010077239,-0.0070167794,0.039436992,-0.01971673,-0.02245944,0.013733846,-0.020065075,-0.0028579405,-0.023056509,-0.009821985,0.016047584,-0.01732334,0.011182635,0.020798322,0.017410465,0.0016982873,-0.0401502,0.0029509687,-0.029119497,-0.018520078,-0.0036265925,0.026176536,-0.0010526427,0.018681007,-0.005651224,0.00842168,0.01637269,0.028140448,-0.01787271,0.011951043,-0.029853305,0.0073442133,-0.006197644,0.0135861365,-0.019384775,-0.0279775,0.02376083,-0.024063226,0.020491503,-0.00708745,-0.016333025,0.009510761,-0.0031284334,0.02302355,-0.015425417,-0.010917974,0.025683884,-0.017283356,0.036893804,0.03487653,-0.021482866,0.01811289,0.009884562,-0.002166189,0.0036393192,-0.020572746,0.013838036,0.008596594,-0.06448529,0.014812016,-0.020718962,0.019465365,-0.008844529,0.0066014603,0.0039124675,-0.006826627,0.01185615,0.013689752,-0.016074706,-0.013185592,-0.007434785,0.010541435,0.016025519,-0.010443087,-0.0062260856,0.04921765,0.036426127,0.04398127,0.0019498338,-0.018322837,0.017053688,-0.022391507,0.008591836,0.014631525,0.034132637,-0.005507316,0.0036197284,0.016143216,-0.011512544,0.010303019,0.012873089,0.0073253186,-0.014732832,-0.0103304,-0.004967305,-0.022879444,0.0001465107,-0.0063162367,0.008155463,0.011883382,-0.008321052,-0.028085478,0.013275667,-0.038731758,-0.006354094,-0.030836023,0.03539566,-0.003514646,-0.02843901,-0.0022227154,-0.005178483,0.018784253,-0.019114789,-0.0006828524,-0.007249177,0.014221329,0.021206604,0.002590874,-0.009820101,-0.0044967914,-0.022312822,0.006777093,-0.0069550653,0.003508095,0.0027741836,0.040473238,0.0016052162,-0.031918153,0.0011163391,-0.012637985,0.013628648,-0.0104272235,0.010662087,-0.019132635,-0.011713024,-0.0023428216,0.014834197,0.017749306,0.010623202,-0.0007389748,0.0055867503,-0.0012828073,0.012233401,-0.0025766422,0.0070514693,0.024214853,0.027620943,-0.017169958,0.016581481,0.034948062,0.009364623,-0.010146867,-0.0035414859,0.022928357,-0.023866234,-0.001256572,-0.006776528,-0.0043571815,0.00836977,-0.00083496014,-0.0061630188,-0.0058652638,0.017311102,0.016794734,0.0009944277,0.011589179,0.010528832,0.02272818,0.00800221,-0.016148183,0.015836816,0.019752078,-0.012356599,-0.0028197353,-0.024103545,-0.056652863,-0.009403164,0.025645522,-0.041766208,0.004734635,0.003529171,-0.0033525652,-0.014979303,0.0060308673,-0.023776984,0.02176364,-0.009678724,0.02315521,0.0016691987,0.010451259,-0.0077959136,0.0020039948,0.022528036,-0.023079474,0.0067379232,-0.0009832821,-0.019493278,0.007835843,0.0336982,-0.021055,-0.0071748765,0.009260919,-0.0035371834,0.038262185,-0.017467296,0.0060940785,0.014471113,0.00020679824,0.00643713,-0.025253635,0.01768797,-0.0033070967,-0.012624214,0.021150269,-0.0014018302,-0.004907884,0.009899889,-0.036101267,-0.009985437,-0.0036066663,0.0131943105,-0.020526854,-0.00490456,-0.005147408,-0.0075680693,0.0004590596,0.002891068,0.035732932,4.1988056e-05,-0.0024062856,0.018490145,-0.01273965,0.013454109,0.012259859,0.017048217,0.031005718,0.010480149,-0.002523423,0.008067089,0.013646564,0.012672686,0.060719006,0.009216843,0.009114113,0.017116182,-0.0008552561,0.0029038615,0.019037902,-0.02234886,-0.034704976,-0.029827505,-0.004023917,0.04084063,0.014948811,-0.010117004,0.021073094,-0.016658973,0.0023692686,0.0073837573,-0.03215423,-0.00014262406,0.00618782,-0.010140303,-0.013240198,-0.032125883,0.0006163694,0.02385556,0.0066649932,-0.013357725,0.016543927,-0.007044635,0.008129689,-0.020162724,0.07140957,0.0009229509,-0.038975332,0.013948131,0.04703077,0.00063959137,-0.026219875,-0.0013752343,-0.037741322,0.028236989,-0.009447658,0.010071614,-0.022681875,-0.032191616,0.006691065,0.018819263,0.010222959,0.033937037,-0.006670855,-0.009678471,0.011365329,0.0060001547,-0.009273958,-0.001449336,-0.048755694,-0.008724872,0.009201949,0.023930375,0.025157597,-0.01490658,0.0066607688,0.0013632354,0.001894336,-0.013659894,-0.014285533,0.030652499,-0.015015343,-0.0043715304,0.0017359182,-0.022654941,0.01065358,-0.011318136,0.018051185,-0.013302821,0.013718608,-0.024796385,0.01744507,-0.021065872,0.039627377,-0.009588437,0.025130382,0.0051639657,-0.015134232,0.014394837,-0.0067652552,-0.0013658793,-0.013529148,0.020227896,0.018186977,-0.0017798677,0.018050035,0.013856635,-0.010764364,-0.053544234,-0.056011077,-0.0037063346,-0.03693041,0.0135065215,-0.012062577,-0.0028548911,0.0120858615,-0.0073424876,-0.02303529,0.034556553,0.020967275,0.0160719,-0.005803167,-0.014244972,-0.0054797777,-0.025543686,-0.042950563,-0.003691987,0.02812281,0.018710947,0.0007267669,0.025746344,-0.0187446,0.0026914452,0.0033212746,0.00839066,0.011982768,0.0013403539,0.0237073,0.007594056,-0.0006801813,-0.0075353575,0.00879725,-0.048392247,-0.014530827,0.0010449513,0.0067308997,0.011221237,0.035735454,-0.018996842,0.017319709,-0.01553539,0.03152522,0.0016946286,0.0076481374,0.019623768,0.0010577573,0.0028149257,-0.026446516,0.026541138,-0.0013923321,0.007387643,-0.042199276,0.026336737,0.0007189566,-0.028557992,-0.017953007,-0.012060919,-6.133968e-33,-0.021208715,0.010479441,-0.017077604,0.0051960484,-0.0632552,-0.008921321,-0.022137718,0.013655975,-0.00790424,0.0064324504,-0.002482678,0.025689708,0.0027727005,0.017629283,0.01733682,-0.016262239,0.008866356,0.018615915,-0.00992775,-0.008248777,-0.025880953,-0.012437175,0.007831952,-0.04476189,-0.023698024,0.02580285,-0.024140079,-0.013360495,0.0016032135,-0.013861822,-0.026592277,-0.004275234,0.0054329005,0.0317472,-0.001771983,-0.009171809,0.024668854,0.0107831275,-0.023977218,-0.011729485,-0.06191988,-0.015620916,-0.016400319,-0.019308228,-0.0055819945,-0.010618036,0.010322892,-0.011356553,-0.023896648,-0.019802278,-0.013913668,0.001676247,-0.0042883074,-0.04068756,-0.034912687,-0.009081013,0.013969092,0.023815364,-0.01695592,-0.0014618476,0.0064466167,0.028943544,-0.008752283,0.050675306,0.028103007,0.005598838,0.033232007,0.027117426,-0.023509981,0.028531782,-0.005041857,-0.0022239399,-0.013369414,0.0015439849,0.014621749,-0.046460323,0.011492119,-0.015502065,-0.028317524,0.008311636,0.00989682,0.021416182,0.004961975,-0.00750742,0.035235815,-0.008340077,-0.015188749,0.038364403,-0.0039058335,0.010473084,0.007087144,-0.016314888,-0.027366128,0.0014235812,0.006640761,-0.009156552,-0.0026422618,0.015128751,-0.0042718844,-0.010484165,0.023480905,0.0025544679,-0.015920859,-0.009810991,-0.00013235395,0.00065174146,-0.016050277,-0.0045959475,0.0027625703,-0.004902348,-0.0044487054,-0.0042098244,0.035024464,-0.0146268355,0.00032310857,-0.011029726,0.017699938,0.03058098,-0.011892627,0.014787732,0.043762185,-0.0027073831,-0.014158647,0.013186964,-0.024255408,0.0006636703,-0.039956708,-0.043102585,0.011999433,-0.02380106,-0.010737547,0.0026440471,2.5179204e-07,-0.03544316,0.025697341,0.0050723376,0.008886368,0.03544638,-0.001228283,-0.0017756599,0.02054592,3.6109457e-05,-0.032040063,-0.0135100335,0.014013225,0.019602716,0.0022508774,-0.017898126,-0.021444412,0.012015973,-0.032890383,-0.015327366,-0.027238322,0.028612437,-0.005717526,0.0029968307,0.0110980775,0.007359148,0.009292604,0.003500764,-0.025796106,0.026023721,-0.007496627,-0.010656276,0.008404418,-0.013825868,-0.01186486,0.007719645,-0.004498536,0.018411018,0.0052600102,0.011589642,0.0099147735,-0.01614167,0.048221596,0.026240045,-0.024668414,0.0039006874,-0.023730827,0.011079497,0.014028856,0.0025370151,-0.021034794,0.013215613,-0.009957024,-0.041737664,0.0071729547,0.0038782205,-0.0038840303,0.0029495768,-0.04005422,0.018488187,-0.004432193,0.017679362,0.037689846,-0.0014693718,0.02121451,-0.010276856,-0.020840108,-0.028283788,1.8193857e-34,0.022633476,0.0036885834,-0.010115083,-0.013529843,0.0004608181,-0.013054811,-0.022719318,-0.013486635,0.023055298,-0.0008124182,-0.0128857475
1F-LSD,-0.019159086,0.017017473,-0.013032052,-0.015865333,0.0026008147,-0.0016441416,-0.05332715,0.0040367683,-0.015515195,0.009313176,0.0028018649,0.013137837,-0.024372378,-0.018436158,0.024794485,-0.02461563,-0.0019757655,-0.0041056657,-0.037152056,0.002234721,-0.0099198865,-0.016653523,-0.0040139104,0.008706263,0.030078724,-0.03778479,-0.0049433047,0.026860563,0.024161097,-0.01645748,-0.026261453,0.016514633,-0.0056173056,-0.0011516344,1.723614e-06,-0.0006891818,0.010093324,-0.004268958,-0.00020583444,0.012760164,0.02189402,0.0006216325,0.004516127,-0.0031906296,-0.00945607,-0.003828207,0.010798476,-0.0020534317,-0.0056795063,-0.0016791411,-0.0070151174,-0.003109168,-0.03290865,-0.00083812367,0.058381487,0.03784455,0.0020359273,-0.036799777,0.030006083,-0.027449451,-0.021478575,-0.024256589,0.005471501,0.01326717,0.03906446,0.022739284,0.024700727,-0.008571712,0.0005647986,0.0063008443,-0.011454294,-0.0028578283,-0.0059383307,0.01602957,-0.009999635,-0.018864682,-0.017158445,-0.009019517,0.024792977,-0.0023001835,0.003739869,0.041780513,0.010264355,-0.007969313,0.0008635613,-0.009296169,0.009756292,-0.013646729,0.006093666,-0.0037956878,0.007949695,-0.0037083735,0.013809651,-0.008040614,-0.0101681715,-0.0044739014,0.0023931314,-0.0009039574,-0.0019992592,0.0070835375,0.014743011,0.024410388,-0.03581609,0.012283368,-0.0056301127,-0.020157874,-0.0064104423,-0.015460849,-0.011991868,0.027478026,0.0035066432,0.010307641,0.0012383331,0.01987797,-0.023639359,-0.03108929,-0.0010578259,-0.007825989,-0.0016571565,0.005975473,-0.037831713,0.018094838,0.018112326,0.00215065,0.019758657,0.0019352885,-0.00041498712,0.0006006184,0.013912901,-0.017263956,-0.018833809,-0.0006791754,-0.013591092,-0.0043487335,-0.006956859,0.01969514,0.00052391674,0.0015917771,0.0025383153,-0.00024210926,0.029326487,0.007130197,0.0380529,0.0049265525,-0.002322705,0.0021292004,0.010741807,0.0043975795,0.0023452437,-0.008708235,0.010056347,0.03730453,-0.02920055,0.0012698722,-0.022532448,0.015417758,0.0330817,-0.0166167,-0.00034744327,0.019871097,0.0041220803,0.002363218,0.028438017,-0.018803332,-0.011382979,0.003909241,-0.0051021604,0.0003922791,-0.021009808,-0.0038753178,0.001350797,-0.022508297,0.009187013,0.028440403,0.019343304,0.01450367,-0.035415933,-0.0036746145,-0.022766627,-0.027348964,-0.0046176496,0.0442165,-0.016509576,0.012801458,0.022446493,0.008362884,0.016832685,0.025570225,-0.011214966,0.0029165128,-0.023685714,0.012909018,-0.0053324504,0.01743847,-0.018842671,-0.02300095,0.022076614,-0.013808905,0.017928999,-0.009824886,-0.015856909,0.009210443,0.009159183,0.014949588,-0.006207104,-0.008731054,0.008152219,-0.015316013,0.025946857,0.03474959,-0.008406226,0.01799551,0.003587452,0.0053740856,0.010978449,-0.011556639,0.012000264,-1.5520574e-05,-0.05587791,0.030636463,-0.021953113,0.016578548,-0.004977657,0.010272316,0.0064393166,1.7679871e-05,0.019666651,0.013065961,-0.011456162,-0.009095891,-0.0034601185,0.008055919,0.018655507,0.0007509139,-0.002434668,0.04609943,0.02326598,0.028042758,0.00029162067,0.0017173954,0.028194956,-0.029221926,0.0013896709,0.0053537213,0.030488482,-0.012516005,0.013051042,0.013046765,-0.002661554,0.011968386,0.019488242,-0.0018086246,-0.027605144,0.001403276,-0.012028477,-0.013394912,0.001002349,-0.009042193,0.005508284,-0.0011009098,0.00029201785,-0.031746104,0.013040108,-0.023798363,-0.006034837,-0.03687744,0.02867551,-0.006108196,-0.01836325,0.00031348798,0.0013574383,0.0030069128,-0.014433705,0.0007690894,-0.013717119,-0.0013245184,0.018796926,0.008829216,-0.0073721427,-0.0009872091,-0.020512115,0.008860141,-0.006132308,0.005380001,0.0065853787,0.025197163,7.866323e-05,-0.041247323,0.0072711282,-0.0057386556,0.0011823552,-0.0068408134,0.0055555743,-0.015554404,-0.007493458,0.007646498,0.016092457,0.0268382,0.0003255252,0.006718624,0.012231035,0.0042097135,0.014585363,0.00239845,0.012697841,0.020120557,0.020567214,-0.014279429,0.0006334941,0.03811416,0.0034207134,-0.0039370772,-0.003288166,0.023101646,-0.014002947,0.005903346,0.008276665,-0.00019617789,0.0067144386,0.0041676923,-0.0020469131,-0.009415746,0.016464178,0.01669928,-0.011789506,0.010371177,0.024819328,0.01944029,0.00824598,-0.008400042,0.01090745,0.020184804,-0.01120505,0.0041710827,-0.019374447,-0.04837265,-0.016399851,0.013141845,-0.02994348,0.0014120904,0.0067672054,-0.006905585,-0.014874847,0.020750036,-0.024771055,0.017231898,-0.0008583784,0.015679551,0.007953559,0.0051708054,-0.006171435,-0.008249955,0.015814872,-0.020399747,0.006329079,-0.0013158921,-0.012136554,0.020149402,0.029870167,-0.004556674,-0.003898866,0.0071916687,-0.006044234,0.03313083,-0.0042165113,0.00023933413,0.002044403,-0.012373347,0.0045368695,-0.012066718,0.019908302,0.0051194015,-0.020712197,0.016143875,0.00044338804,-0.005097144,0.013346696,-0.041872215,-0.014322599,-0.0056383503,0.010782931,-0.02129745,-0.006312197,0.0014977882,-0.009050797,-0.008811005,0.0044186646,0.03675284,-0.007509548,0.008032768,0.011027792,-0.027808871,0.024923481,-0.007195623,0.019402882,0.021545082,-0.00043338854,-0.0053352895,0.0035866788,0.008258393,0.0038546827,0.038809393,0.00600833,0.0032118822,0.01898855,0.0036519803,0.00046359855,0.016572842,-0.008030625,-0.04164265,-0.020878771,0.0066005504,0.036290694,0.013860726,0.0012696641,0.013101935,-0.018143825,-0.008671976,0.009122255,-0.044241507,-0.014501723,0.005138715,-0.0034555919,-0.0187237,-0.04183549,-0.0014105149,0.030157931,0.00343022,-0.014701475,0.012001962,-0.004797542,0.010004337,-0.0046329238,0.0661733,0.0022012265,-0.017728012,-0.002284725,0.0493881,0.0037539846,-0.031821866,-0.0149203455,-0.030107914,0.029984705,-0.019133342,0.025006011,-0.013499369,-0.017291456,-0.0022659374,0.01039547,0.016683638,0.02946793,0.0026814216,-0.0030521166,0.0153907845,0.02193927,-0.009850313,0.0073563457,-0.0642747,-0.0057153488,0.0029757626,0.018002555,0.022500442,-0.007230183,0.005505251,0.017244194,0.010217631,-0.023357913,-0.012428572,0.016354714,-0.009843537,0.013129349,-0.0036411856,-0.01955429,0.014098636,-0.019822326,0.013874327,-0.013269578,0.005128507,-0.030600501,0.010078356,-0.012599955,0.027453374,-0.018426323,0.02823185,0.0009162812,-0.0070077246,0.005647032,-0.0063653453,-0.0021959494,-0.022321194,0.016878944,0.014336497,0.0023235169,0.014225411,-0.0036040896,-0.0072317827,-0.041592084,-0.054233473,-0.015207759,-0.027781235,0.019405184,-0.0039850217,-0.006160456,0.012715747,-0.002822208,-0.018261394,0.020959651,0.029831583,0.008282338,-0.0020007521,-0.014362359,-0.004030512,-0.014384152,-0.044478137,-0.009996612,0.019478975,0.00822481,0.005087886,0.024610125,-0.015023475,0.0052767377,0.008777588,0.005340583,0.007739957,0.002831137,0.015060262,-0.0024720572,-0.007777125,-0.01827581,-0.002074786,-0.05228356,-0.019720146,-0.014851455,0.0014982144,0.0095961625,0.023277855,-0.025405189,0.019218782,-0.016446175,0.035550606,0.011554078,-0.002561706,0.011653413,-0.008589238,0.004790151,-0.025990041,0.030216876,0.0003374589,0.0073662973,-0.03044408,0.019250559,-0.008382834,-0.014620703,-0.017154526,-0.023285668,-5.9781855e-33,-0.015196998,0.016311405,-0.015020453,0.0013078275,-0.06489907,-0.019819207,-0.019100718,0.018611478,0.0064552953,0.008278498,-0.0024585417,0.018262547,0.0076006437,0.013551053,0.012108519,-0.017692983,0.017770268,0.015170405,-0.007386821,-0.0050784866,-0.030663667,-0.00464998,0.0144763235,-0.041973814,-0.004366292,0.014579909,-0.011689769,-0.018973794,-0.00810189,-0.017007276,-0.027353173,-0.01530445,0.008653605,0.022775128,0.0017882884,-0.012362272,0.02582991,0.014965476,-0.016896658,-0.011566999,-0.044906463,-0.023889083,-0.0051555345,-0.010278851,0.005022971,-0.010351277,0.0097675845,-0.005445752,-0.015946345,-0.014803856,-0.02005113,-0.010241053,-0.0013879051,-0.038432453,-0.03142312,-0.007617206,0.0063198335,-0.00010459242,-0.010098733,-0.0007007917,-0.009315163,0.019282283,-0.008136815,0.03306103,0.021374073,-0.004140859,0.030989004,0.02106602,-0.030572431,0.033394888,0.0038873332,0.00020468797,-0.015455233,-0.00011804314,0.01420318,-0.042749897,0.017845381,-0.020606125,-0.03164229,0.012961137,0.009446331,0.01539878,0.011289657,-0.015905332,0.028401839,-0.013223289,-0.012838206,0.028735252,-0.010165757,0.009192188,0.009339066,-0.01222813,-0.0247196,0.0017464291,0.011373969,-0.019348722,-0.008717422,0.02055383,-0.005646038,-0.015599919,0.018011957,0.008905925,-0.016105317,-0.016125148,0.004596708,0.010994786,-0.015806371,-0.0033008726,0.003443008,0.0014031228,-0.005267777,0.005987343,0.034304604,0.00018486929,0.00045290258,-0.00673648,0.015783578,0.02568642,-0.013557153,0.02018224,0.027871868,0.013016053,-0.012099759,0.020245826,-0.023510462,0.009732974,-0.024750432,-0.017960358,0.015916884,-0.020910027,-0.010174246,-0.009603625,2.4635332e-07,-0.050106127,0.020867188,0.0067667435,0.014018116,0.035086703,-0.0076567116,-0.005152288,0.01904258,0.0071758325,-0.02346519,-0.0074266987,0.01365786,0.021377353,0.007934509,-0.010489295,-0.028387638,0.003009818,-0.025964532,-0.005347406,-0.01354835,0.0084710205,-0.0054110307,-0.0017895417,0.009530441,0.0074954205,0.0033178052,0.0021975108,-0.021478558,0.014871318,-0.012459346,-0.009672707,0.016678188,-0.018617509,-0.011934508,0.0031370763,-0.010933385,0.015449988,-0.0043173037,0.003102729,0.011024025,-0.021366475,0.03687853,0.020071747,-0.009664085,0.0021162156,-0.049088724,0.015061584,0.02507603,-0.002404464,-0.021800866,0.024832243,-0.016059605,-0.034322694,0.013213883,0.0051415474,0.013243254,0.0063375616,-0.028290566,0.022960804,-0.002930547,0.013246388,0.026002476,-0.008407129,-0.0042054076,-0.025114609,-0.033212367,-0.029984137,1.5893446e-34,0.012983555,0.015194821,-0.005890594,-0.011121236,0.0076767076,-0.015545303,-0.010151992,-0.010328584,0.015341437,-0.00020501962,-0.012361768
1P-LSD,-0.010915005,-0.0028401904,-0.014686036,-0.015903143,0.008957371,-0.0007579618,-0.03176033,0.009244415,-0.010281284,0.014240301,0.009072063,0.002912363,-0.03418078,-0.021822102,0.023078104,-0.0044559403,0.009404412,0.008419724,-0.043599404,0.0092133535,-0.007160157,-0.011622684,0.009475612,0.0035414174,0.018839845,-0.019372882,-0.004077063,0.019797508,0.012455706,-0.031507287,-0.015825175,0.004112039,-0.0077862428,-0.01027298,1.7450961e-06,0.0034743997,0.0021802501,-0.0031577107,-0.019579593,0.014135247,0.0015660893,0.00020787414,0.0030786037,-0.007824771,0.00041744483,-0.008112383,0.009940009,0.009453676,-0.026565334,0.006242843,-0.0026575488,-0.0048204735,-0.019534638,-0.006774446,0.055494525,0.021126658,-0.0016818542,-0.021608504,0.03418398,-0.023614375,-0.022008002,-0.0130185215,0.013816054,0.019048324,0.030623067,0.022576323,0.0061784973,-0.014701715,-0.005724151,0.0018125625,-0.021220582,-0.0057617407,-0.006466755,0.023120882,-0.024937391,-0.030503506,-0.01796726,-0.019900836,0.014564455,0.00027731314,-0.011038343,0.049332164,0.016244842,-0.0040469365,-0.006430954,0.007146309,0.0065446356,-0.012997041,0.0042167422,0.0042193956,-0.0095790345,0.011947834,0.0040639997,-0.010324534,-0.0014217936,-0.010367245,0.008612081,0.010587361,0.003810016,-0.020122247,0.014812403,0.012329666,-0.027513277,0.012977628,-0.0017875247,0.0061173183,-0.031180065,-0.010735945,-0.025976272,0.024149422,-0.01404405,0.025831502,-0.0035144775,0.020457184,-0.0020468193,-0.020238394,0.0062988433,-0.012253818,-0.003641117,0.013110001,-0.05381338,0.009519069,0.0054242923,-0.008839616,0.025640521,0.0020175478,-0.0068178116,-0.0017492874,0.0056427782,-0.010935239,-0.0143098235,0.003227786,-0.020974394,-0.012550509,-0.010521167,0.020544553,0.0037232894,0.0066596903,-0.003034965,-0.009091658,0.016331635,0.00024105258,0.04417916,0.005288767,0.0010951099,0.008402298,0.0078715775,-0.0005590653,0.005637494,-0.016596919,-0.0036565617,0.037534047,-0.035988275,-4.2271986e-05,-0.026037728,0.017958162,0.024284277,-0.00981383,0.0011590652,0.017236223,0.013279917,0.006031317,0.017495079,-0.008199882,-0.011863897,0.0024212967,-0.022448346,0.0015636852,-0.024194356,-0.0003695669,-0.012396424,-0.022315811,0.0050793006,0.025011033,0.0029839822,0.01707456,-0.04511308,0.0066805054,-0.022122404,-0.028412541,-0.01399183,0.046226796,-0.026255962,-0.0015093524,0.025315735,0.012760415,0.024225779,0.008032084,-0.0015024211,0.016405426,-0.015695678,0.007962893,-0.010117546,0.012329857,-0.009450648,-0.020668365,0.023737045,-0.0057900283,0.021106098,-0.022419842,-0.0084777055,0.018277679,0.003213612,0.03015054,-0.00058466115,-0.014413482,0.015818827,-0.01853806,0.01972852,0.037944805,-0.009493002,0.025003398,-0.0002565812,-0.0046076034,0.0101816645,-0.002878583,0.009758627,-0.00020325906,-0.052391224,0.025429582,-0.019021178,0.012844002,0.0036780694,0.010849727,-0.016956817,-0.025763636,0.019859726,0.003683813,-0.004883862,-0.004053938,0.005387022,0.0014429438,0.016122384,-0.015304436,0.0014413835,0.04107148,0.00043272495,0.0110098915,0.0008457067,-0.009144432,0.0156130595,-0.017129585,0.0010744841,0.010075878,0.035277247,-0.017064964,0.0071855886,0.0035552448,-0.0014136485,0.007806499,0.015666341,-0.0032661771,-0.018124823,-0.0023068807,-0.0042987433,-0.0068953666,-0.019229097,0.007841308,0.014837414,0.011764208,1.0908106e-05,-0.02062741,0.016703883,-0.030934261,-0.0109506035,-0.030276222,0.031385276,-0.0041644396,-0.009735683,0.00068567577,0.006268753,0.0018168788,-0.025638983,-0.0014889442,-0.013095643,0.0025395493,0.0155876195,0.008340118,0.0064284513,-0.00401594,-0.008721493,-0.005113455,-0.01009904,0.00120066,-0.010144012,0.03517801,0.004454257,-0.023720337,0.015603453,-0.008508405,0.005348838,-0.0057907673,0.0041974806,-0.019146912,-0.0009859442,0.007031399,0.023797711,0.021708282,0.007507031,0.02968149,0.015676932,0.012590643,0.0190441,-0.0053736204,0.0045201047,0.02483438,0.011862044,-0.011552288,0.0014290106,0.03463475,0.008816935,-0.008420632,-0.007800871,0.009592749,-0.017987614,-0.0018111081,0.01637138,-0.013965786,-0.0076397196,0.0069270143,0.00013614225,0.00051373034,0.0120387,0.014863746,-0.015738357,0.006304009,0.012953052,0.023960343,0.023549762,0.0027538342,0.011114056,0.01319451,-0.0053445357,-8.0826794e-05,-0.0034174537,-0.03411475,-0.012672075,0.0084382305,-0.020239558,0.0065747467,0.011107066,-0.0025688095,-0.010988606,-0.00058741623,-0.016696589,0.018427523,-0.014656466,0.020846896,-0.010229451,0.0021950798,-0.015718821,-0.009577501,0.00836355,-0.023334024,0.0097077275,-0.00072158326,-0.011018585,0.007575823,0.020724898,-0.01850557,-0.0035669336,0.0060457853,0.012884181,0.031350274,-0.006931496,-0.009092102,-0.012319142,-0.016726073,-0.00377915,-0.015570172,0.0024238068,-0.002245873,-0.024548972,0.009251283,0.00043577323,-0.00027547998,0.015250034,-0.03747546,-0.02351746,-0.0038839278,0.010539904,-0.025166985,-0.012090055,-0.0034686716,-0.010949368,0.002527937,0.0100747775,0.024820728,0.0015323048,-0.006456233,0.0070357393,-0.027295891,0.011594887,0.006319988,0.01590333,0.021099493,-0.008019447,0.0048115323,0.0044383667,0.0072077657,-0.005122423,0.034503926,0.013355092,0.0139014525,0.010611685,0.012289481,-0.015127757,0.0033361083,-0.0062887846,-0.041491713,-0.007378642,0.02303147,0.030810893,0.022295253,0.016548684,0.022215053,-0.014746722,0.0054267896,0.0056102765,-0.056237057,-0.0083734235,0.0029211834,0.00015778696,-0.01851438,-0.041316193,-0.0022872363,0.03479541,0.008141076,-0.0061063454,0.00053007697,-0.007147598,0.0020890427,-0.006156778,0.05988252,0.02279905,-0.029953195,-0.00060366804,0.03833338,0.007529713,-0.022356452,0.0029768418,-0.03750094,0.02214303,-0.009895449,0.021511251,0.0029164741,-0.015182858,-0.0073865973,0.02075122,0.014797098,0.02317113,-0.007700569,0.003250267,0.008773492,0.011407351,-0.011909768,0.022594592,-0.04284285,-0.016795399,0.017483471,-0.0008084068,0.023946246,0.007434135,0.003148204,0.022030288,0.0018663749,-0.014131546,-0.010116182,0.006938871,-0.004614277,0.03002681,-0.0034021402,-0.013789874,0.009691389,-0.019139042,0.00016550001,-0.016403792,-0.004905374,-0.033035927,0.0040337825,-0.0018093251,0.01967955,-0.019485574,0.024374153,0.003362677,-0.008573382,0.0012858412,0.0062628123,0.0039347443,-0.037865475,0.015342427,0.0053740107,0.0038439156,-0.003039799,-0.00031383664,-0.006807088,-0.041841023,-0.04624686,-0.0032381956,-0.010142927,0.02236974,-0.008695363,-0.0011992676,0.01564225,-0.005078028,-0.006129039,0.00800615,0.027454609,0.010494398,-0.0042638476,-0.01457918,-0.008717043,-0.012591783,-0.04536001,-0.0059632915,-0.00077545363,-0.0044564814,0.004002443,0.028381843,-0.014072935,0.0060989894,0.0017198729,0.0102101825,0.014287725,2.5000048e-05,0.007876015,-0.0015735743,-0.005325811,-0.010361779,0.0038931575,-0.038409185,-0.018082665,-0.020551454,0.0007011645,0.0054462655,0.010130804,-0.017881809,0.0019964194,-0.026229564,0.018305296,0.020075874,0.009878863,0.013754494,-0.0029929846,0.0063399835,-0.02072753,0.026977142,0.0054457723,0.007580716,-0.026511738,0.022164395,-0.0026508926,0.0017650297,-0.014978651,-0.010620852,-5.9297353e-33,-0.001527447,0.0152561935,-0.019535506,0.008930573,-0.057123337,-0.010442647,-0.02285835,0.02113183,0.018688967,0.0057467567,0.00774348,0.014352484,0.006727775,0.008741768,0.01332772,-0.0051431623,0.015855335,0.016861217,0.0008514978,0.0003695114,-0.01828236,-0.004424483,0.009136908,-0.028901042,-0.011751552,0.007657037,-0.013750477,-0.01947057,-0.012753977,-0.009532347,-0.016852649,-0.01963959,0.012251138,0.012591979,0.0040726243,-0.024666484,0.02166342,0.013275786,-0.00472117,-0.020287707,-0.05669437,-0.006502858,-0.004706669,-0.014584312,0.010400656,-0.022921039,0.0078010354,0.0017099382,-0.01662507,0.0005936061,-0.0038471937,-0.01452513,0.0021568737,-0.042388603,-0.023224588,-0.013834003,0.00013159227,-0.008795323,-0.005039565,-0.002840646,-0.017256372,0.008050417,-0.0068569193,0.010266654,0.010985827,0.004529664,0.057120036,0.013517489,-0.033283044,0.023700593,0.006322792,-0.012006911,-0.013200494,0.010495966,-0.0056190034,-0.047863558,0.011676545,-0.004535154,-0.02832533,0.00491531,0.02547652,0.011747496,0.007720487,-0.007970067,0.028766928,0.005127939,-0.007537101,0.031782355,0.00021722529,-0.0011962309,0.013271282,-0.011051105,-0.021037947,-0.006440042,0.014588824,-0.018917058,-0.008398903,0.02136491,-0.0013442005,-0.010481443,0.019826604,0.012402186,-0.0090422025,-0.013117906,0.007859233,0.007429883,0.0031224068,-0.0017479152,0.010585661,0.0008367493,0.00051934505,-0.0025483696,0.037953816,-0.004427963,0.0016619039,0.0019797345,0.012353742,0.016978681,0.00020089855,0.038330767,0.02901319,0.0014036988,-0.02321817,0.02663522,-0.022490636,0.011451945,-0.03431365,-0.012466025,0.01579927,-0.017219372,-0.004978201,-0.006639207,2.460667e-07,-0.054009363,0.02079442,0.016380632,-0.0027381112,0.028156232,-0.010788961,-0.0063103847,0.011713008,2.8907312e-05,-0.008369963,-0.003583403,0.009751523,0.01564317,0.0056367856,0.0036564525,-0.001054526,0.013641493,-0.010865144,-0.0147321215,-0.006365797,0.019880813,0.0025649953,-0.00864606,0.0045005227,0.019414509,0.0019335283,-0.004758919,-0.017298808,-0.0034586247,-0.008659433,0.006834955,0.006458723,-0.024678301,-0.0014567375,-0.0013907613,-0.026987474,0.0075680553,-0.0059109987,0.0020296657,0.012130502,-0.014768802,0.0296732,0.02200307,-0.01219389,0.0073299683,-0.03625614,0.011256172,0.037242472,-0.01955635,-0.017164705,0.021092318,-0.00777122,-0.038436767,0.014200095,-0.0004947622,0.016736042,0.008632828,-0.017723003,0.02409912,0.006297081,0.016116211,0.026406942,-0.0036422724,-0.0120807495,-0.030645298,-0.035354663,-0.032560278,1.4435511e-34,0.006852204,0.0041685384,0.015049464,-0.01766048,0.008875413,-0.008880013,-0.016615247,-0.009111745,0.012944091,-0.0028310588,-0.009300889
1cP-LSD,-0.020052051,-0.001778961,-0.01828803,-0.010651159,0.0059009125,-0.00028720032,-0.041058715,0.014218534,-0.01817186,0.018871123,0.010927956,0.0020411788,-0.02865607,-0.008459673,0.02458197,-0.022688257,0.004102573,-0.00014389402,-0.034437068,0.0034656478,-0.0037223757,-0.017156731,-0.00022755917,0.0072326693,0.008199813,-0.037023965,-0.005567105,0.019807521,0.011075395,-0.021014445,-0.019400464,0.0095395455,-0.017588437,-0.0057886564,1.7282005e-06,-0.0029055339,0.00562696,-0.0043346616,-0.00383747,0.03082178,0.012775041,-0.008883904,0.0068429112,-0.008181984,-0.0040571447,-0.009954065,0.009129761,0.0040002735,-0.016652934,-0.00526056,-0.00045566948,-0.005924981,-0.020230485,0.0018547268,0.0510401,0.031681925,-0.006075264,-0.029829318,0.034486562,-0.018542401,-0.020279836,-0.013226488,0.01116988,0.015655573,0.027451567,0.021322917,0.0041949525,-0.0009585194,-0.002133258,0.010127738,-0.014030788,-0.008916103,-0.006159022,0.018768745,-0.022356117,-0.02072212,-0.018136486,-0.007353122,0.011377957,-0.0142835155,-0.015809556,0.03019255,0.013938455,-0.008744368,-0.0020911463,-0.0055335187,0.008418803,-0.008254776,0.005554075,0.0031401084,0.003971111,-0.00095576287,0.0039606728,-0.0035496855,-0.004579728,-0.0030670846,-0.0006883227,-0.002565005,0.0033523112,-0.0076132645,0.02480162,0.02686271,-0.03011839,0.018622788,-0.00762171,-0.0050194445,-0.02531144,-0.010030521,-0.016486274,0.027401648,-0.014316384,0.02178695,-0.00046914528,0.016356675,-0.00945345,-0.027714059,0.0043969615,-0.008281106,0.0024290818,0.010723273,-0.052044597,0.02034485,0.017111383,-0.006681294,0.012920552,0.009248014,-0.0030532987,-0.0027761746,0.0112466905,-0.017307865,-0.02194521,-0.0020356362,-0.020334128,-0.0024045568,-0.0036668251,0.013696667,0.0003003398,0.0043195505,0.0031678735,-0.0005135252,0.01358411,0.0073766075,0.036595248,0.0028307305,-0.006084514,0.011564021,0.007915698,0.013930661,0.006737696,-0.008532943,0.005082375,0.03544543,-0.042088605,0.005974899,-0.020963445,0.02070468,0.017846059,-0.010665906,0.0042697308,0.02190156,0.0034983738,0.0002400653,0.028410828,-0.0068065356,-0.016328264,0.010438635,-0.026764888,-0.002751383,-0.022534221,-0.008890253,0.00108945,-0.015136371,0.0076510706,0.020997414,0.013182981,0.012737551,-0.038144577,0.00606697,-0.027769007,-0.02932503,-0.0030970802,0.040720813,-0.011680707,0.00870342,0.022070846,0.01235433,0.016804377,0.010954342,-0.011923087,0.006027001,-0.026359105,0.0069316872,-0.016439425,0.011816133,-0.009528221,-0.014608418,0.019072045,-0.019872684,0.027727507,-0.015248799,-0.0076199663,0.0018830003,0.0075628636,0.029344706,-0.003962643,-0.017954066,0.020074878,-0.02407976,0.023897314,0.03948588,-0.0142695615,0.022630287,0.0026117987,0.0011827446,0.004815097,-0.0070863944,0.011258248,0.0050029624,-0.057941582,0.026803806,-0.020044588,0.015084359,-0.004275228,0.008991909,-0.0052036573,-0.0025939313,0.022029094,0.004091552,-0.011141151,-0.004510915,-0.0015291705,0.0072897216,0.019083567,-0.013350369,-0.0045278645,0.037824083,0.008990748,0.027084045,0.008863716,-0.006226064,0.019408286,-0.03133118,0.008460278,0.016080458,0.046508785,-0.022932917,0.0063857315,0.011336793,-0.0027568194,0.0060190195,0.017821452,0.0037550295,-0.01802323,-0.0057105594,-0.009529263,-0.0067346804,-0.01189611,-0.0063145673,0.00090776285,0.013445126,-0.0022939781,-0.024945373,0.020548124,-0.031567596,-0.013141696,-0.030518241,0.023474788,-0.0036928668,-0.017217366,-0.00036576582,-0.00051450724,0.008597094,-0.025944967,-0.0054065213,-0.009658196,0.008917533,0.011390505,0.008592333,-0.0039906236,-0.0045148362,-0.01795393,-0.00016236733,-0.01159809,0.00018351294,-0.0017865675,0.030466774,0.0068070134,-0.028629782,0.007525066,-0.01794573,0.013010876,-0.009672544,0.009497708,-0.019174056,-0.0060718097,0.0070684305,0.02307524,0.026315397,0.0017168574,0.024726458,0.00863263,0.00793065,0.011941533,-0.002641489,0.0028367012,0.020730123,0.012894993,-0.01337422,0.021521185,0.029401595,0.013542843,-0.005647808,-0.003469281,0.011123907,-0.016231453,-0.005970432,0.016980827,-0.011399792,-0.0010629405,0.009474295,-0.0033567878,0.004889011,0.009698737,0.012896545,-0.0048867906,0.020081703,0.011224308,0.016853526,0.01834773,-0.0027545975,0.008604613,0.017778026,-0.012907785,0.0036348838,-0.009364445,-0.036024068,-0.013364218,0.014865825,-0.022717157,0.0038238468,0.012061157,-0.0010585574,-0.015039386,0.00558836,-0.010435103,0.019578584,-0.006577379,0.019918814,-0.0054740896,0.009229824,-0.004912934,-0.007925704,0.014405308,-0.018890748,0.0095173605,0.0056314724,-0.020368291,0.019001445,0.014914647,-0.026559975,-0.010275578,0.011131866,0.0035405385,0.028390655,-0.020427868,-0.0064781415,-0.0025172955,-0.011005099,0.0011283628,-0.019697972,0.010244177,-0.0047791265,-0.01705394,0.011484993,-0.0007304073,-0.0030445673,0.0113671655,-0.024084717,-0.01285521,0.00028649298,0.009882786,-0.024968056,-0.0024061047,-0.0015783234,-0.010110813,0.005676189,0.0035887542,0.03158997,-0.0029669688,0.0026894037,0.005595354,-0.022755781,0.0135559635,0.012698109,0.02069623,0.033816013,-0.0005181364,-0.00017983693,-0.00049302366,0.012501984,0.002474467,0.045474447,0.016413549,0.004054009,0.013551861,0.004498145,-0.005165133,0.008088672,-0.014796875,-0.049311083,-0.018300781,0.013811487,0.040378146,0.017136998,0.010541673,0.021630432,-0.017486077,0.012207623,-0.0020394695,-0.042882062,-0.0075071035,0.012218117,-0.011004,-0.015316446,-0.034757663,-0.005102129,0.025832264,-0.0010756671,-0.0150674,0.01137182,-0.013309888,0.0052612294,-0.008337522,0.07477123,0.010739254,-0.031577174,0.0033346566,0.04631569,0.0016574311,-0.024651652,0.0010907036,-0.041932147,0.033638287,-0.007139728,0.016814716,-0.0058360095,-0.017758131,-0.007907794,0.016923698,0.014740332,0.028586466,-0.012783399,-0.00567348,-0.00020906633,0.010425432,-0.009577761,0.01792652,-0.052353375,-0.0113232825,0.0056497226,0.008567249,0.024731774,-0.009928245,0.0053718956,0.018488983,-0.001285447,-0.013788637,-0.016371109,0.016262177,-0.007503487,0.014980522,0.000894755,-0.016737595,0.01682879,-0.022165244,0.008679409,-0.01888194,-0.005036073,-0.035244126,0.0068373447,-0.010290694,0.034465726,-0.015673125,0.01764538,0.002831297,-0.016752686,0.0027373352,0.005280061,0.0003279806,-0.020000255,0.020518323,0.0021710272,0.0017764788,0.011700728,0.0037202197,-0.0044936296,-0.04845924,-0.054383423,-0.016098408,-0.02455552,0.019769566,-0.007552324,0.004091879,0.01704879,-0.006105745,-0.011163897,0.021214277,0.028347002,0.014725831,-0.004862436,-0.004462308,-0.004130651,-0.010974764,-0.043732986,0.002332859,0.013979895,0.0075630676,0.0066757947,0.01890542,-0.009823626,0.0056227245,0.004539394,0.00950109,0.009795814,-0.0006066144,0.0127171045,0.004816677,-0.005285775,-0.009941752,0.006753237,-0.041972395,-0.027269606,-0.007576815,-0.0028489076,0.006111814,0.01515409,-0.018589636,0.014784332,-0.019881094,0.02235355,0.0118913,0.0018488762,0.022568036,-0.0050689112,0.0040984494,-0.021193255,0.03221444,0.0032006663,-5.7418115e-06,-0.02864401,0.020906728,0.00048002455,-0.015199048,-0.008954945,-0.0068202354,-5.941226e-33,-0.007531749,0.016057339,-0.015827747,0.0066557513,-0.059642028,-0.007711631,-0.020483894,0.02103725,0.008178327,0.0004781142,-0.0024388165,0.019419525,0.005383928,0.0075097857,0.0069295433,-0.014605519,0.019034125,0.017711293,-0.005067574,-0.0032312262,-0.029476492,-0.01026819,0.010173458,-0.041032743,-0.018845161,0.01577292,-0.00991925,-0.020572906,-0.004122444,-0.008612381,-0.0229855,-0.015731884,0.0076682577,0.014039415,0.0011836691,-0.014698718,0.025056506,0.01381658,-0.01726396,-0.008939901,-0.04799217,-0.008263409,-0.0023622138,-0.011644793,0.001287296,-0.021555556,0.0123980045,-0.009180415,-0.025486697,-0.004082683,-0.009497465,-0.0087218,-0.0045637195,-0.03445798,-0.035498157,-0.019032173,0.003862343,-0.00435278,-0.018629128,-0.0014179953,-0.0023129543,0.016241282,-0.0075072628,0.02800558,0.015759224,0.009877804,0.0476024,0.025251621,-0.026199762,0.026825428,0.0076642497,-0.0034113238,-0.018299306,0.0048785266,0.008433074,-0.05212555,0.012360422,-0.00832295,-0.033641323,0.016594877,0.017965611,0.01203048,0.00027627536,-0.0079017775,0.028371414,0.0030523727,-0.01237133,0.03052723,-0.004101355,0.007193395,0.022596061,-0.010501106,-0.028263567,0.00037256963,0.018559631,-0.016202359,-0.010984073,0.023550177,-0.0014671035,-0.013824113,0.02317939,0.008727323,-0.023161158,-0.0069040596,0.0026962333,0.0021921836,-0.012663191,-0.0040125996,-0.0016988555,-0.0014843709,-0.0024615251,0.00039823662,0.038790382,-0.007235738,0.004946652,0.0009186277,0.011189582,0.02706368,-0.008441628,0.02300871,0.033691976,-0.0018744724,-0.020682614,0.015732117,-0.023858782,0.0016818104,-0.03787067,-0.018030027,0.015388273,-0.030421197,-0.011885736,-0.003965473,2.4610478e-07,-0.04694966,0.029504634,0.008437171,0.007334257,0.035688784,-0.007008171,-0.0035875617,0.02017202,0.002782566,-0.026262509,-0.007677357,0.020200899,0.01809755,0.0046883705,-0.01481656,-0.016556524,0.0109232515,-0.017958455,-0.016236657,-0.006767377,0.018656323,-0.007789101,0.0007888013,0.004872832,0.013530166,-0.010271681,0.0032340272,-0.0100930855,0.0061258636,-0.013007488,-0.0043287487,0.016163854,-0.02118789,-0.0067601013,0.0031710353,-0.015764967,0.010698155,-0.006187343,0.0074894195,0.019655053,-0.016912302,0.036494255,0.022209328,-0.006690735,0.005917853,-0.031103544,0.017430006,0.03609139,-0.011726532,-0.017672626,0.022316564,-0.010108438,-0.035777852,0.012714763,0.00071319204,0.005064276,0.0051346784,-0.021279715,0.029909333,0.0048731756,0.008483654,0.026262067,-0.0023800202,-0.003768743,-0.022172682,-0.025909605,-0.03615931,1.6528931e-34,0.010566786,0.0036396307,0.008161585,-0.011853682,0.0057196883,-0.011921026,-0.0099722035,-0.005604109,0.022315236,-0.008489818,-0.009357701
2-FMA,-0.007659377,0.0039296867,-0.020945568,-0.040892694,0.033122644,0.010051623,-0.020452928,0.011415822,-0.027087742,0.010423879,0.0145308105,0.019079227,-0.0575897,-0.029176524,0.026271462,0.043887697,-0.007090962,0.0019436982,-0.0022244013,-0.011613125,0.002697948,-0.03274139,0.009225832,0.010571221,0.020503234,-0.019938309,0.008920073,0.031316794,0.006719742,-0.018817952,-0.012654049,0.060725767,-0.021928746,-0.02606983,1.5717612e-06,-0.008923804,-0.005197807,0.016445968,0.015895996,0.0137533005,0.04277432,-0.004414379,0.010295639,-0.0034426122,0.0017704446,0.015278941,0.004152581,0.0013766394,-0.041150413,-0.005349084,-0.015547864,0.022501487,-0.02894551,-0.0037452825,0.0744274,0.0050360393,-0.005070628,-0.043154236,0.021741696,-0.033652958,0.012933545,-0.035521492,-0.005728365,0.017400518,0.03700187,0.01634129,0.017297223,-0.053426743,-0.010971296,-0.0073075024,-0.014482441,0.032779463,-0.0036520325,0.007943501,0.018945096,-0.011667182,-0.031276654,-0.027244026,0.02856415,0.0036031692,0.045831032,0.04473178,0.025272036,-0.030417707,0.026153278,-0.031204369,0.0064744055,-0.021506324,0.04532893,0.02116635,-0.00690203,0.024438752,0.011320678,-0.06810743,0.0014648805,-0.0057985033,0.0038118865,-0.011003229,-0.00056565704,-0.01809372,-0.03154778,0.044690337,-0.051593788,-0.005690992,-0.031022683,0.005506943,-0.01833378,0.0026205224,-0.014869777,0.022939198,-0.0029797605,0.012157657,-0.010701764,0.034617823,0.0020471574,-0.03169275,-0.0031995303,0.0048008556,-0.04480946,-0.014393406,-0.021623887,0.017585654,0.005261313,0.008356658,0.0038782347,0.0046653217,-0.009618862,0.00386997,0.037655927,-0.021701347,-0.007002727,-0.011773707,-0.023842275,-0.034227632,0.000392152,0.023352653,0.010033373,0.017614987,-0.024480682,0.0069204876,0.025652638,-0.012691872,0.06522423,-0.0005431578,0.011475237,-0.008752281,-0.0032290467,-0.00040894077,0.0048562726,-0.010478044,0.014088871,-0.012533059,-0.05246787,0.0084215095,-0.019150347,-0.010406219,0.027119836,-0.0017308133,0.0037481636,0.021987822,0.023687685,0.0029539329,3.3382512e-05,-0.008133433,-0.0052912645,-0.021114072,0.00799185,-0.005576376,-0.008451634,-0.032694887,-0.019337388,-0.010003477,0.0015228469,0.044568483,0.019095391,0.0024259253,-0.024356846,0.020573083,-0.05161173,-0.055802763,-0.004200576,0.0427078,-0.041895796,-0.0018856641,0.0089446185,-0.0081766425,0.02903976,0.0047484403,0.0010526642,-0.0068771928,-0.0054660803,0.008415978,-0.022228805,0.021410875,0.011572307,-0.03248901,0.009320809,-0.013754283,0.04008595,-0.019674268,-0.018031897,0.012248148,-0.0018653233,-1.3853447e-05,-0.0033766776,0.009614833,-0.012343456,-0.018192027,0.013640821,0.04390354,-0.031076035,0.0038986183,0.0057455795,0.008630284,0.020775585,-0.034343693,0.0071718507,-0.00038577925,-0.021699082,0.04788623,-0.02460613,-0.0019243803,-0.008176804,0.0030775398,0.020721033,0.0028078328,0.025401568,0.021906098,-0.020689245,0.004159306,-0.001855328,-0.015419011,0.033374805,-0.013828114,-0.0010420893,0.060136866,0.014143352,0.01260488,-0.012930225,0.0806992,0.04420507,-0.01173231,-0.035025164,0.002940228,0.032636836,-0.023288703,0.014335543,0.011562911,-0.002512804,-0.00085579883,0.037047338,0.0011604142,-0.026547587,0.031295616,-0.01656543,0.017963145,-0.022877082,-0.018149357,-0.02411073,0.006303632,0.035911467,-0.038004268,0.00050925015,-0.009301235,-0.015311467,-0.05430168,0.026313324,0.012058991,-0.009745015,0.00503329,0.011434307,-0.0056701414,0.00043879138,-0.005015449,-0.021433644,-0.010136148,0.028568104,0.018863931,-0.012348752,-0.0035672963,-0.0016895083,0.029257903,-0.008901929,0.0027364257,0.015027407,-0.007668645,0.0035248678,-0.034145534,0.029721614,0.031373028,0.021609645,0.008229855,0.008776257,-0.00415627,0.0026385093,0.0076108514,0.033215016,0.013353285,-0.0047680503,-0.009238586,0.012163905,0.021992842,0.024338776,0.014664766,0.011622348,-0.00277702,0.026481014,-0.02352559,-0.03499984,0.04971358,0.016824152,0.011951424,0.005942351,0.007191848,-0.013481565,-0.00073792995,-0.008350115,0.022407478,0.014901517,0.01646068,0.0010161487,-0.006209986,0.013775611,0.024756888,-0.037921876,0.008680975,0.023769584,0.04302904,-0.022471007,-0.01802368,-0.014625488,0.036562167,-0.012597042,0.0126949875,-0.026197994,-0.062189173,-0.014768481,0.011527933,-0.02494306,-2.5878753e-05,-0.009503282,-0.012594637,-0.020460198,0.000376302,-0.007524873,-0.008293571,0.010604848,0.006705559,0.003989105,0.0013542308,-0.020088417,-0.021415317,0.0058094584,-0.014125277,0.0067221047,0.006137822,-0.034540437,0.023129659,-0.012334017,0.0030513133,-0.013812619,0.00943497,0.0007368154,0.010725909,-0.006188601,-0.018183904,-0.020008808,-0.03638366,-0.0021459493,-0.022926072,0.012713705,0.0069802254,-0.013515277,0.020617519,-0.023891512,0.012062215,0.0008877107,-0.04378971,-0.008281267,-0.008550836,0.018730674,-0.01903653,-0.025076324,0.03211356,0.01901709,-0.02006818,0.023364967,0.041946065,0.009186918,0.0060369493,-0.0058494024,-0.030428972,0.024583884,-0.032531343,0.022079756,0.021867093,-0.029083025,0.0019829252,0.008117506,0.025991563,0.023731297,0.03674978,-0.023101646,0.0010479239,0.032134667,0.009192308,-0.0018632386,0.00045501976,0.005335351,-0.01028383,-0.008456463,0.005234986,0.026771825,0.014917525,0.022494342,0.011015324,-0.026799489,-0.0037872277,0.004719897,-0.07655887,-0.02556185,-0.012969086,-0.017711982,0.0024777267,-0.066149786,-0.0075627477,0.05791893,0.009013215,-0.0034636296,-0.0054143234,0.011359276,0.016739927,-0.007053011,0.04833744,-0.007998921,0.0268092,-0.0061006313,0.05442118,-0.015624198,-0.0036560476,-0.04470747,-0.039507397,0.0150454715,-0.04808263,0.058440275,0.003329841,0.0023137666,0.031395614,0.015864972,0.05945795,0.024258565,0.005728121,-0.013578323,-0.014702025,0.037719525,-0.017829685,0.0025268137,-0.07337307,0.021266315,-0.014639096,0.0321287,0.019644074,-0.025948588,0.0010616701,0.053561985,-0.024380716,0.007938666,-0.007777218,0.022267625,0.0075825914,0.034187783,0.0009288139,-0.03222262,-0.0035209183,-0.04311075,0.007400099,-0.019084677,0.03306914,-0.0051027536,0.018086936,0.009012898,0.02467748,-0.024189811,0.015227608,-0.006422273,0.0030618974,-0.009925694,-0.007623685,0.015042247,-0.04195223,0.019306837,-0.0006349556,0.013489386,0.032954216,-0.03495293,-0.011547808,-0.04333034,-0.049376905,-0.04329912,0.02401914,0.03711477,0.012739818,-0.0042951507,-0.0011423334,0.0119660795,0.014731111,-0.032338165,0.04924872,-0.011479344,-0.016513843,-0.034782525,0.023319734,-0.0035102665,-0.02396681,0.006898229,-0.017917875,-0.016637335,-0.0056920424,0.048319798,-0.0072857314,0.003222645,-0.0070005446,0.014186402,0.026337963,0.020436268,0.010695493,-0.023423856,-0.0022981917,-0.035653822,0.0009010203,-0.05863583,-0.010645489,-0.059546918,0.010596402,0.011310259,-0.0072141886,-0.007964449,0.013320381,-0.03216715,0.015903581,0.043928515,0.011342113,0.010801579,-0.021933556,0.047008418,-0.026914615,0.03813661,0.002711506,0.007232339,-0.032999676,-0.0032915443,-0.0056781285,0.051400267,-0.010745838,-0.04020708,-5.3508995e-33,-0.0014273587,0.045611612,-0.031158164,-0.00059198093,-0.06605081,-0.0015342217,-0.02134313,0.029433537,0.040942837,0.0059436625,-0.038085483,0.0066407337,0.019676331,0.006187016,0.0043735406,-0.01614583,0.028432364,9.0636124e-05,0.019509664,0.009863476,-0.039897304,0.013997562,0.02389569,-0.010565203,0.011168336,-0.00048810616,0.00362754,-0.048565663,0.008522269,-0.012786326,-0.010806025,0.02064557,0.025011605,0.01827842,0.012307367,-0.05169599,0.028519895,0.039384626,-0.00212415,-0.04095477,-0.06489913,-0.015001779,0.032094415,0.010992,0.002869757,-0.012812133,0.0019603944,-0.00023491067,-0.0072637373,0.0071767187,-0.03542577,-0.015915409,-0.008756879,-0.016367111,-0.046919048,0.025411189,0.0033111747,-0.014096046,-0.0032358572,-0.00925147,-0.025616195,0.011314297,-0.008312989,0.028662544,0.01749302,-0.017186344,0.040644564,0.041083664,-0.013690196,0.0572222,-0.007329504,-0.0349926,-0.022169549,0.016909327,0.021765847,-0.067250036,0.007941824,-0.010440107,-0.04721548,0.016643876,0.011188875,0.01906099,0.014559329,-0.039956596,0.018318735,0.043200873,-0.023646845,0.008115241,-0.0007525578,-0.00065082964,0.027283844,-0.025763597,-0.01138548,-0.010693081,0.05577309,-0.0023330343,-0.028165206,0.048641175,-0.007840012,-0.050753497,0.0038805522,0.027370904,-0.0099720955,-0.009138458,0.0033500106,-0.0031793937,-0.009906287,0.011059043,0.033171996,0.00734643,-0.010674541,0.02651153,0.062236182,0.004112276,-0.03551162,0.0037141547,0.04172539,0.055974036,-0.011368165,0.026920596,0.010530333,-0.013080619,0.041386373,0.016662693,-0.024685148,0.024785258,-0.02342813,0.008495798,-0.023680199,-0.008413279,0.0077435696,-0.046993457,2.3154207e-07,-0.057714067,0.018331481,0.0036557629,0.019122839,0.035587974,-0.011163707,-0.0059687784,-0.0065403087,0.021575725,0.027383301,-0.017030176,0.02649498,0.016268628,0.0057484717,0.026728153,-0.040488385,0.037684895,-0.052603316,0.008289487,0.0026973234,0.01625005,-0.016262878,-0.020138271,-0.011424225,0.021118958,-0.027984118,-0.008188782,-0.022175252,-0.02619933,-0.034739908,0.014159804,0.018284079,-0.012090016,-0.009040457,-0.0025069132,-0.033743743,-0.0068923035,-0.029859772,-0.011886218,0.014805606,-0.00786509,0.017179934,0.02207149,0.016737439,0.014403555,-0.06361601,-0.006404575,0.0585791,-0.026245039,-0.031552777,0.027960083,-0.03955362,-0.054204512,0.0059007495,0.0008581517,0.031717036,-0.019807009,-0.004960601,0.033147432,0.00539983,0.013453181,-0.017623853,-0.012086069,-0.008763645,-0.05009796,-0.05909112,-0.019856062,1.170933e-34,-0.009005259,0.041365445,-0.0037409968,0.0018399969,0.02075083,-0.017268084,-0.030079182,-0.020962095,-0.01882055,-0.014617902,-0.03348794
25C-NBOMe,-0.008186937,-0.022260772,-0.013770114,-0.0092628235,0.0038689082,0.0037655563,-0.04028506,0.019919176,-0.018053435,0.011123453,0.009336048,-0.0020211,-0.027605603,-0.010467152,0.03251437,-0.028625881,0.009763823,0.0032142254,-0.035718,-0.004888301,-0.006464018,-0.008674299,0.008231388,0.010664168,0.015736813,-0.037737887,-0.011633803,0.017166447,0.011810665,-0.0143997455,-0.016531356,0.0008383295,-0.012007235,-0.004893078,1.6638966e-06,0.00026756938,0.004641091,0.000704608,-0.0015253292,0.026896687,0.023744041,-0.01748959,0.0109977,-0.0060695587,-0.008580122,-0.026022924,0.0074875946,0.013656971,-0.0068898876,0.0035827702,0.0009883012,-0.0071753296,-0.02432953,0.0033413137,0.057462573,0.025971228,-0.0061326246,-0.025460735,0.036866337,-0.01600712,-0.01958387,-0.013267891,0.006586141,0.014550697,0.01960602,0.016112285,0.0008129686,-0.0044595613,-0.003981382,0.010474975,-0.038917266,-0.008138805,0.00031079462,0.026434425,-0.029474722,-0.019730706,-0.011608135,-0.0030176705,0.01720794,-0.017462624,-0.020102778,0.03959809,0.017352236,0.00052134215,-0.004532521,-0.0021314612,0.0042329123,-0.0031971138,-0.00060107635,0.0003364853,0.0090760635,0.0056263446,0.0019003397,-0.0037228514,-0.01003335,-0.004769216,0.0010453864,0.002154707,0.0038216803,-0.011803187,0.023622073,0.013860233,-0.021602139,0.01793533,-0.018776022,-0.012692535,-0.022211885,-0.012384101,-0.021334626,0.018312667,-0.01040546,0.0219318,0.004182357,0.012619023,-0.0052236873,-0.020936338,0.0077590263,-0.013737962,0.004549213,0.014967172,-0.038042042,0.025040783,0.018790862,-0.006080343,0.012738072,-0.004232253,2.038352e-06,-0.00062705873,0.0052860067,-0.013127001,-0.016610235,0.004955494,-0.02302756,0.0008038366,-0.01206041,0.017800331,0.0053746193,0.016381733,0.013382053,-0.0005349654,0.017228538,0.008170544,0.035763394,0.0025969245,-0.013645176,0.011202337,0.0139127085,0.014070245,0.0052384413,-0.018454133,4.902702e-05,0.03644158,-0.045891088,0.0029775933,-0.01897499,0.018455224,0.012993634,-0.012443607,0.0038147108,0.016346393,0.00089115236,-0.0033555368,0.030240318,-0.01344663,-0.014259841,0.015945282,-0.017103627,0.003370729,-0.029150072,-0.0076337103,0.00081756775,-0.016970934,0.01306148,0.015146678,0.0032272465,0.0077924468,-0.053187266,0.00038378182,-0.024752362,-0.0269232,-0.012696072,0.03847764,-0.014182201,-0.0013407331,0.015801603,0.0071549,0.011646181,0.009586867,-0.012837248,0.0044557336,-0.019655524,0.003770926,-0.0076065823,0.005934046,-0.005746814,-0.013716384,0.017795753,-0.009554123,0.020882184,-0.014875958,-0.0107974345,0.010831643,0.014677207,0.03731095,-0.0023524724,-0.010868438,0.019855421,-0.019971699,0.010259022,0.0253002,-0.016719203,0.023367738,0.0025531529,-0.003460426,-0.0015718588,-0.005387566,0.012464645,0.005825306,-0.059655033,0.015640387,-0.015795276,0.012760561,-0.0018437912,0.00877248,-0.0056357533,0.0046581477,0.022160355,0.0021336295,-0.011546594,-0.012643219,0.0071729776,0.009468089,0.0153099,-0.018293194,-0.016023107,0.031129295,0.0005624431,0.015082377,0.013113148,-0.007656046,0.015237841,-0.014103872,0.0044813445,0.014626805,0.057270978,-0.016551293,-0.0025368931,0.011019336,-0.0014009045,0.007115293,0.0143058365,0.0037438078,-0.01425316,-0.0010704779,-0.0028051883,-0.010970263,-0.0015794797,-0.00011356429,0.00040510387,0.003009114,0.0015679474,-0.02433611,0.025679968,-0.033796825,-0.009276458,-0.018462129,0.030042531,-0.002284278,-0.0060970057,0.0035897377,-0.010699884,0.014878169,-0.01640154,-0.0015661027,-0.014384416,0.0058103786,0.009733371,0.0026898575,-0.009007605,-0.004702014,-0.019850317,-0.0036227347,-0.0073794187,-0.0011102782,-0.009860081,0.033914715,-0.0042127855,-0.02971318,-0.003175875,-0.0071548824,0.0035224168,0.00015757803,0.014284862,-0.017284935,-0.0076820985,0.0033674,0.024976777,0.015644994,0.007191248,0.03054798,0.00014782533,0.0073513626,0.0046753236,-0.0061947266,-0.0051991926,0.029288022,0.012418793,-0.018424163,0.021777445,0.032797143,0.009751546,-0.0096725365,-0.005368236,0.01741117,-0.020087605,0.0039444244,0.014661058,-0.010581979,0.0056326794,0.008337495,-0.00091553025,0.007155309,-0.0019290895,0.00867386,-0.0037368913,0.015136025,0.009115721,0.018155849,0.0050080866,-0.0049341787,0.014935844,0.016991233,-0.0035147239,0.0051663895,-0.008761377,-0.032439653,-0.014058963,0.0053637433,-0.020408971,0.0035878273,0.0058631646,-0.006908576,-0.01287354,-0.00858433,-0.013573319,0.018328767,-0.021371,0.011375215,-0.018245399,0.013235174,-0.016573641,-0.008884346,0.011880333,-0.01615482,0.00051379146,0.0020095273,-0.008255488,0.00853425,0.01882839,-0.02017066,0.0023672343,-6.1606734e-05,0.0041331905,0.03879063,-0.02119243,-0.002045121,-0.013843702,-0.012244837,-0.0009380645,-0.029943362,0.0034046911,-0.0029166345,-0.013284109,0.011770019,0.0028374232,0.0076585095,0.0132901585,-0.02168829,-0.016725954,-0.008378406,0.006618376,-0.017660286,-0.010757937,-0.008317267,-0.0112195,0.0026316242,0.005298068,0.030040417,0.004285552,-0.006467602,0.007345654,-0.023200544,0.004174725,0.023437276,0.019683518,0.026468173,0.0116622085,-0.004713253,0.011032585,0.011915058,0.004245058,0.050532803,0.017724289,0.0073530423,0.018187655,0.0018473541,-0.010060905,-0.00015184315,-0.00862132,-0.03682681,-0.019593224,0.012336198,0.035240103,0.022784866,0.003237731,0.029324988,-0.015302235,0.016031839,-0.009935949,-0.045224372,-0.0022872163,0.015279581,-0.009739318,-0.024071492,-0.040611587,-0.0058492348,0.033850346,-0.0002722485,-0.0036230737,0.0062150424,-0.011449863,-0.001905698,-0.015227677,0.07141203,0.025690034,-0.047970414,0.00043364117,0.037479136,0.011004781,-0.02578453,0.010749972,-0.040949404,0.0117998775,-0.007177725,0.01953516,0.0013981264,-0.024826156,-0.004315065,0.01570918,0.015624147,0.027596101,-0.005252423,-0.0010379606,0.010070127,0.018130992,-0.005540164,0.022796353,-0.052421074,-0.0050214226,0.0093783345,0.01321587,0.021600788,-0.0044668443,-0.007177649,0.0237648,-0.00446729,-0.021359779,-0.008810069,0.007101506,-0.0075890543,0.00847363,0.0006424141,-0.011862473,0.016552858,-0.01785639,0.005225499,-0.01671198,-0.019761192,-0.029857855,0.0037597078,-0.016392218,0.031544726,-0.010646999,0.009216328,0.014051719,-0.012390005,0.015823392,0.0010751908,0.005542696,-0.014641613,0.01652979,0.0040868507,0.0018317455,0.012640146,0.009180105,-0.009512897,-0.03259365,-0.04909682,-0.0046967804,-0.025814354,0.021579245,-0.011280834,0.006595004,0.023695733,-0.010682777,-0.014443039,0.019741096,0.016604735,0.018774591,-0.006131246,-0.0012661606,-0.0035374854,-0.008702592,-0.03551652,-2.0122741e-05,0.01787624,-0.007216538,0.0055055437,0.023786737,-0.008374284,0.0040185726,0.0016514243,0.00403444,0.014374726,0.006401415,0.019641602,0.0059517426,-0.0034097233,-0.0067583025,0.012145551,-0.034026824,-0.009186493,0.0038773594,-0.004703373,0.0009611835,0.033444848,-0.01090951,0.0070476104,-0.010394239,0.013596119,0.017201236,0.0026855606,0.019621795,-0.0060187327,0.00028947167,-0.016581848,0.03417142,-0.0043673473,-0.0010333172,-0.030602297,0.022023147,0.0066005033,-0.014518977,-0.010197557,-0.01094298,-5.8401935e-33,-0.011402366,0.0069043874,-0.013045186,0.0063775172,-0.041321974,-0.0021940079,-0.017394735,0.013113174,0.004297965,0.0035368227,0.00046738898,0.021328753,0.005780153,0.007760489,0.008029401,-0.0115798665,0.017957686,0.017534802,-0.009463337,-0.0034113335,-0.025866354,-0.015406204,0.007890091,-0.04467083,-0.021264963,0.0056827916,-0.02394986,-0.024581293,-0.012079986,-0.013238006,-0.030736001,-0.01801257,0.0036906577,0.020135546,-0.0020538697,-0.0116828475,0.02235129,0.0103498865,-0.009322203,-0.00029842282,-0.041861963,-0.01945302,-0.009589062,-0.009597576,0.007041057,-0.020518208,0.014226546,-0.009677303,-0.0127535295,-0.0013712421,-0.0038047666,-0.008507031,-0.007884375,-0.046889942,-0.033768333,-0.01559726,0.0040158057,0.0047528967,-0.0031412689,-9.343078e-05,0.004740903,0.02076401,-0.014387557,0.0303367,0.011987809,0.004679293,0.047740765,0.023086317,-0.03629478,0.023088787,0.0088896295,-0.0010861383,-0.014066474,-0.0037823753,0.0044355807,-0.03638018,0.016993668,-0.0014798127,-0.039966866,0.011982438,0.017357396,0.01002241,0.0071214037,-0.010899885,0.034241583,-0.004758163,-0.004144905,0.027751679,0.0031626308,0.0060431636,0.01819903,-0.008262603,-0.029920869,-0.0005942763,0.007123538,-0.023037428,-0.005972785,0.012917806,-0.00072997226,-0.009914367,0.03572579,0.0019119013,-0.010264249,0.0002929709,0.00058090006,0.009742326,-0.0039488613,-0.005476717,0.005900137,-0.006645314,0.0009333396,-0.0010446041,0.0297874,-0.0018103115,0.002035811,-0.0011065389,0.009032832,0.019345367,-0.007577232,0.029494882,0.036008168,0.0010681343,-0.02253215,0.02264922,-0.03260287,-0.0040685833,-0.04534302,-0.025374899,0.011024925,-0.030915258,-0.014587346,-0.004757835,2.384979e-07,-0.036185447,0.03194621,0.014884006,0.0028130065,0.021417513,-0.000789025,-0.0022963155,0.010562404,0.0039239177,-0.02009866,-0.008317382,0.012521365,0.0104387505,0.0047719944,-0.014589449,-0.004169271,0.0022843645,-0.02452541,-0.017304504,-0.0060345884,0.010817534,0.0008328079,-0.003548617,0.010566306,0.018382553,-0.0024604676,0.0011393272,-0.016681451,0.0076285372,-0.017166436,-0.013250241,0.014458998,-0.012129081,-0.0106606055,0.009234818,-0.016250515,0.017461156,-0.005782179,0.0055066585,0.02214226,-0.016423324,0.03021141,0.025582206,-0.012525657,0.006262383,-0.014247452,0.01068816,0.03284166,-0.0071884105,-0.015143658,0.014406291,-0.01923831,-0.033396773,0.020337893,0.0009256305,0.0038278433,0.0072778133,-0.017886622,0.026734805,-0.0026821988,0.015655141,0.03258237,0.0009304759,-0.0050182748,-0.016641533,-0.013792234,-0.035103586,1.5274415e-34,0.009450253,0.00699269,0.006936544,-0.015929079,-0.0028918716,-0.014501393,-0.006173845,-0.0014382472,0.016560756,-0.0019789569,-0.005880838
25I-NBOMe,0.0025696827,-0.00059357827,-0.0090789255,-0.01323962,0.01638767,0.0012541942,-0.03149828,0.00051482365,-0.01045879,0.006594017,0.007556981,-0.0067768167,-0.02917788,-0.007412407,0.026190333,-0.011921875,0.0074910135,0.017558973,-0.036122497,0.011494205,-0.0012764671,-0.00781638,0.018244604,0.01238065,0.013940456,-0.015028127,-0.010907215,0.01706452,0.0007991605,-0.022885613,-0.00892152,-0.0006468521,-0.0140576335,-0.013708288,1.7267365e-06,-0.00801764,-0.00431712,-0.004639688,-0.018167317,0.0026680222,-0.0085626645,0.0051511554,0.00244431,-0.002817528,0.0026434606,-0.003404165,0.0127328755,0.032363858,-0.019453516,0.0011383297,0.002236057,-0.017773034,-0.006017594,-0.0014000216,0.0437521,0.02023442,-0.002462608,-0.019309469,0.032393854,-0.03169338,-0.02020915,-0.010788661,0.014686042,0.018516187,0.018034449,0.021238297,0.004499234,-0.01997023,-0.0038247583,-0.0007949348,-0.02798226,-0.017201697,0.0012063005,0.03187902,-0.023032662,-0.026073238,-0.01614383,-0.015985005,0.010667219,0.004082149,-0.022865087,0.05453762,0.011432917,-0.0016318611,-0.008965671,0.016318193,0.000866369,-0.004584858,0.0069846045,-0.0033711572,-0.024735222,0.014245505,0.0065434612,-0.009364857,-0.0030009302,-0.01587988,0.006387191,0.022985598,0.004935625,-0.027892614,0.009857597,0.007959714,-0.013783572,0.012511585,0.010654789,0.0077719945,-0.036659542,0.007480962,-0.029676871,0.018529318,-0.031834133,0.025050374,-0.0070057283,0.030539516,0.007897607,-0.007716989,0.010057467,-0.01708086,-0.006603524,0.022576444,-0.05988404,0.0059744385,0.0066304132,-0.009414233,0.025104241,-0.009039146,-0.017085122,-0.013316856,0.007301957,-0.011604344,-0.011993804,-0.0045385626,-0.028855257,-0.0068301545,-0.018412007,0.023260232,0.0070318496,0.012837021,-0.011408857,-0.012767181,0.031682394,-0.016500507,0.047472954,-0.0003908688,-0.006680644,0.006621634,0.0136234835,-0.00756367,0.0078045577,-0.024464337,-0.0127547225,0.047992405,-0.046933785,-0.01236191,-0.017598478,0.02412347,0.029044474,-0.0048826784,-0.0074376,0.008882809,0.0067634243,0.016155075,0.024759334,-0.014890799,-0.0020980316,-0.0023765604,-0.03529185,0.0027928718,-0.022946378,0.0023536114,-0.0148703875,-0.03320181,0.008322564,-0.0029529938,-0.010900929,0.029983811,-0.048917618,0.01112491,-0.02636975,-0.007761605,-0.022894515,0.045874745,-0.02152026,0.0031930574,0.021517161,0.010233311,0.015387316,-0.00043100203,-0.0005112371,0.032458693,-0.011220376,0.0050154235,-0.00485798,0.01882061,-0.009217698,-0.0124322,0.0138071515,-0.0006105006,0.021597428,-0.029010247,-0.0103438925,0.027103484,0.013142807,0.033623733,0.0042883367,-0.012936578,0.02503251,-0.024064478,0.014349776,0.04013293,-0.012550901,0.030395614,-0.0013056978,-0.008193313,0.0030414022,0.0049129263,0.0059983656,0.0011108585,-0.061986934,-0.0031461895,-0.009906931,0.01867929,0.009329524,0.009128438,-0.0169802,-0.019198274,0.004597549,-0.0030616708,0.0011826614,-0.00295831,0.008165511,0.00362912,0.016878597,-0.021173116,-0.011655078,0.030391736,-0.01716301,0.007260448,-0.0036639606,-0.022093015,0.017244415,-0.0071105156,0.012191213,0.018459022,0.048728425,-0.009255252,0.011452628,-0.01139159,-0.0051545287,0.004549567,0.014828025,-0.0014492598,-0.0074919886,-0.009970561,0.0024423876,-0.013042308,-0.021583103,0.014157318,0.015528394,0.020105736,0.0046152603,-0.018741762,0.020038167,-0.046813656,-0.017261518,-0.03218532,0.030738022,0.0027037761,0.00041817152,0.0018911094,-0.0021604619,0.010627868,-0.035393883,0.0007697997,-0.013576788,-0.00036259924,0.033216685,0.0018713954,0.010547398,-0.0120087005,0.011121701,-0.010170669,-0.0035607985,0.007670648,-0.0146084605,0.053582802,0.0062196827,-0.021025147,0.024045791,0.005341272,-0.0023206596,-0.00800034,0.0007987953,-0.017803684,-0.003828764,0.004502502,0.018553771,0.015264582,0.005117014,0.040556606,0.0187749,0.0012937877,0.01479335,-0.013102089,0.0035312765,0.03243748,0.011605685,-0.011144616,0.007991322,0.04319311,0.007943927,-0.008760343,-0.018729819,0.0059593767,-0.017340505,-0.0007246662,0.008980404,-0.029876165,-0.010539142,0.0037710958,-0.011926677,0.0040136217,0.0120695075,0.009748462,-0.012604842,0.0172986,0.01166847,0.033939417,0.03615614,0.014403627,0.014768725,0.013376476,-0.0086685,-0.0012910699,-0.002433511,-0.034391303,-0.01280727,0.0030765897,-0.016433507,0.008362533,0.0027351372,0.021270253,-0.009827282,-0.007038894,-0.009524392,0.023792272,-0.018432068,0.034832392,-0.012207112,0.018234238,-0.027637081,-0.006065597,0.0048662196,-0.02271262,0.018068612,-0.009758607,-0.012381839,-0.018911604,0.022732511,-0.02899934,-0.002282044,0.0074582268,0.011116321,0.03062526,-0.0069461553,-0.02186961,-0.018845202,-0.017986989,-0.0005146875,-0.012945564,0.0041016485,-0.0075381543,-0.023237007,0.0013953215,0.0032411527,-0.00500237,0.011312737,-0.023174597,-0.041143402,-0.0040475195,0.008363498,-0.03161117,-0.012151042,-0.009418747,-0.0028838797,0.0032447784,-0.0008302491,0.019817863,0.012869163,-0.021244317,0.008839481,-0.036427364,0.0044816285,0.02783788,0.015504863,0.021201713,-0.005263422,0.0032997672,0.009584632,-0.0016007031,-0.015508194,0.040066667,0.012552152,0.019953357,0.0101318965,0.020549659,-0.014494731,0.0031324553,-0.0042778724,-0.03697344,-0.01164786,0.030793395,0.023991885,0.018690217,0.010374099,0.02543042,-0.0059960303,0.016299257,0.0004082868,-0.04715027,-0.0075577106,0.009498108,-0.003656748,-0.02793045,-0.05276479,0.0102572,0.025758,0.007040059,-0.0013091661,0.0057033445,-0.003911105,-0.007989282,-0.011687309,0.06403934,0.03548238,-0.033543307,-0.0067065516,0.040967695,0.015637545,-0.022972059,0.010047829,-0.033056196,0.0073475703,-0.005150322,0.016025044,0.017393474,-0.024450475,-0.008858388,0.024330907,0.0102098,0.025798816,-0.011041115,-0.0031112337,0.0005433808,0.0010218815,-0.012162628,0.02499957,-0.03730869,-0.019579804,0.03212841,-0.005804143,0.020138675,0.021719158,0.004631174,0.0067298743,0.0058159307,-0.0031437378,0.0003146816,0.007149981,-0.015477969,0.039996617,-0.008348494,-0.010854218,0.008701856,-0.017537924,-0.007991278,-0.01561841,-0.025768023,-0.029170724,0.0075480095,-0.01795386,0.009545257,-0.015214202,0.022295646,0.00959744,-0.018857554,-0.005493508,0.01315677,0.0040464113,-0.047349434,0.020845402,-0.0029904898,0.015883677,-0.022161793,-0.006374572,-0.001929518,-0.028758585,-0.04217739,-0.0023382823,0.007417107,0.018348357,-0.014344425,0.0012697189,0.022830546,-0.0025162455,-0.0024481888,0.0024223546,0.03780653,0.007984267,-0.002872697,0.00019392576,-0.01494712,0.00050057814,-0.049769856,-0.014559792,-0.007751021,-0.007632882,0.012867724,0.0288767,-0.009982604,0.008472064,-0.007695874,0.018643362,0.018085133,-0.012799893,0.008183177,0.0025982675,-0.004106156,-0.008929201,0.004194545,-0.031164981,-0.017343676,-0.02425699,-0.008229247,0.002026687,0.011556848,-0.021568045,0.009504728,-0.02859301,0.020345394,0.0116714975,0.027202139,0.010778681,-0.011525691,0.0109298015,-0.0111232605,0.02446423,0.008645666,0.0014194328,-0.030765017,0.022659536,-0.008938041,0.014796573,-0.009058469,-0.0035495833,-5.6024626e-33,-0.0028908397,-0.00037051458,-0.03225862,0.010514745,-0.05180948,-0.017542804,-0.026517967,0.012015543,0.021424027,-0.0024736598,0.018449899,0.019000199,0.0039330656,0.010499165,0.011559408,0.004225964,0.011907142,0.021728273,0.00846168,-0.00092835905,-0.0060056127,0.0014311424,0.01261042,-0.03208143,-0.008638794,0.0040440694,-0.018917298,-0.00999155,-0.0039799185,-0.013934243,-0.021360442,-0.030090425,0.014226612,0.014720163,0.010286844,-0.03335932,0.021551358,0.014220485,-0.013203615,-0.025769467,-0.06608694,-0.002892778,-0.008860314,-0.0181829,0.014560413,-0.021919113,0.015674062,0.011774633,-0.010986896,0.018523285,0.0068258327,-0.02414182,0.0044135414,-0.05059312,-0.028533304,-0.03521142,-0.007669625,-0.015086573,-0.0053780484,-0.0031956222,-0.029365709,-0.0061889463,-0.013722447,0.017283611,0.011907314,0.015812576,0.060400497,0.016015349,-0.043362785,0.020303445,0.013689975,-0.020638956,-0.00223721,0.007813972,-0.017284837,-0.045924585,0.012181026,-0.0012621866,-0.03049552,0.0045395987,0.034537405,0.00801252,0.010370664,-0.010995489,0.03788467,-0.005676089,-0.0076300674,0.028873296,0.00062634476,-0.004629678,0.003417633,-0.0075426525,-0.021471111,-0.0075295432,0.00737604,-0.018299542,0.00021854085,0.013560424,0.00016202497,-0.0010023086,0.019075608,0.018719677,0.0002552838,-0.017646031,0.008388818,0.007835808,0.0071431096,-0.00893227,0.013982984,0.0015321947,0.0030774178,-0.007813252,0.036582373,-0.011795955,0.0010443998,-0.0005873067,0.015348806,-0.0013070767,0.005339358,0.049513903,0.029180128,-0.00385281,-0.037968963,0.022755677,-0.017599348,0.007732315,-0.045602445,-0.018959906,0.026271587,-0.0100287385,-0.0035127748,0.0014316159,2.4402175e-07,-0.06069125,0.0102365995,0.016172646,-0.008512007,0.016096294,-0.0049633137,0.0037831033,0.019911863,0.009695627,-0.011299941,-0.005981613,0.006197874,0.01457454,0.017114213,-0.0014391389,0.017450454,0.016127026,0.0013571379,-0.020619476,-0.012720579,0.01986004,0.0034849055,0.002772091,0.011742508,0.02779654,0.0056195264,-0.0029245696,-0.0076703173,-0.009238128,-0.008602002,0.007859881,0.0026271387,-0.024163041,0.005398519,0.0058107865,-0.029837944,0.007498706,-0.008927622,-0.002996333,0.018848643,-0.006321664,0.026732765,0.026200606,-0.013188357,0.004519971,-0.03492395,0.007692629,0.04344124,-0.019315284,-0.021413533,0.017771084,-0.0061580013,-0.038712505,0.02749736,-0.007295809,0.015981479,0.017063897,-0.0108378865,0.024163814,0.000114963965,0.025996475,0.032029275,0.0022711381,-0.023925332,-0.03464958,-0.029591264,-0.02559207,1.558207e-34,-0.002984365,0.0036715155,0.019177511,-0.023285158,0.0107460385,-0.006971706,-0.015219474,-0.006637425,0.013069135,0.004261175,-0.0024754768
25i-NBOH,-0.009818881,0.0032883093,-0.01147541,-0.012517344,0.004201017,0.009968725,-0.045313366,0.00071583013,-0.005548103,0.018524673,0.008180643,0.0055055264,-0.021244042,-0.015472349,0.029470686,-0.013206236,0.007836528,0.004094681,-0.02688099,-0.009290715,-0.0008312271,-0.0072210156,0.0012750657,0.012325276,0.00800755,-0.03954853,0.0052524833,0.023395471,0.009832157,-0.024302136,-0.020966448,0.017873626,-0.016471975,0.0016339228,1.7038413e-06,-0.00022767627,0.0069754105,-0.005164799,0.0022776658,0.014156787,0.018542452,-0.01589452,0.014988702,0.0035397941,-0.0013392676,-0.008873854,0.013419635,0.017102934,0.004097522,0.0034763094,0.00019328574,-0.0022696713,-0.024860721,-0.0017947302,0.051194515,0.017203584,-0.0003196496,-0.023602111,0.032544,-0.032549072,-0.027178723,-0.0103254225,0.0047517745,0.024871888,0.024547227,0.021046551,0.0028421513,-0.0018517119,0.0012626369,0.016680362,-0.021736674,-0.005775994,0.01218608,0.025461927,-0.014448542,-0.020702992,-0.021349575,-0.005758321,0.0077488325,-0.01973246,-0.018138312,0.03517028,0.013521054,-0.007887056,0.00018289147,-0.008304698,-0.0013774204,-0.00502983,0.01725466,-0.008632034,0.011558768,0.0017452522,0.009954093,-0.012623172,-0.016108094,-0.0030613958,0.003062342,-0.0019847369,-0.0026186411,-0.01375426,0.012329602,0.022168575,-0.024072789,0.017802421,-0.0019219262,-0.026840758,-0.023301043,-0.019771792,-0.014917862,0.03580772,-0.010126429,0.016437136,0.016259395,0.0051333755,-0.00027794894,-0.029817913,0.0028937075,-0.0086389175,-0.012006525,0.011729699,-0.049876317,0.026581464,0.022839177,-0.009712393,0.01619876,0.011257965,-0.00483329,-0.0053651934,0.0050017177,-0.015336303,-0.01481219,-0.0137768155,-0.017731413,0.0038533653,0.0041887346,0.024121577,-0.0018991056,0.011009652,-0.0012949283,0.002457886,0.010423794,0.002818223,0.027970973,-0.0036702876,-0.0063391984,0.009297667,0.0052337577,0.0111334715,0.010523349,-0.01874507,-0.005394785,0.037293196,-0.03889592,0.0044917054,-0.002235421,0.018754506,0.016368872,-0.0067682257,-0.008035594,0.006379549,0.0024355378,-0.00034262968,0.033631608,-0.006265753,-0.011817293,0.009718366,-0.009230689,0.00044494064,-0.024053486,-0.010235782,0.008065278,-0.026294325,0.004087297,0.015939392,0.007115974,0.015760425,-0.045935806,0.012044672,-0.03585996,-0.029235141,-0.017821051,0.04011612,-0.015896412,0.01500455,0.010929171,0.0042025186,0.010415704,0.016158618,-0.015567281,-0.002287605,-0.015282939,0.01265186,-0.016986273,0.013290642,-0.013967486,-0.013707832,0.025493512,-0.008219372,0.014033262,-0.016612012,-0.0139576495,0.012461037,0.008168367,0.035956513,0.0018362374,-0.013933821,0.01340046,-0.022628246,0.018360091,0.019300506,-0.029059602,0.023061657,-0.0034563162,0.0037063141,0.0008820309,0.0070287394,0.008223586,0.009420459,-0.06138609,0.021022467,-0.029922005,0.010828385,-0.009470389,0.011021286,-0.01131968,-0.00038711808,0.027376955,0.009758218,-0.011134292,-0.014113607,0.0031244112,0.009629626,0.016635917,-0.013696787,-0.008607322,0.039742682,0.0073961136,0.016914926,0.0066646696,-0.0070813242,0.004035421,-0.014922142,0.008514779,0.018719433,0.039971214,-0.021318428,0.0049119703,0.0047241766,-0.0030863886,0.0018349306,0.017511552,0.0015904441,-0.015436497,-0.00853351,-0.011524328,-0.006271435,-0.00082109,-0.0036448666,-0.009228724,-0.008236472,-0.003478366,-0.032108173,0.019116003,-0.02532508,-0.017932365,-0.025735648,0.031469367,-0.010882708,-0.00975516,0.0006366309,-0.0025000519,0.0057364567,-0.030433737,-0.009214003,-0.013771704,0.01266761,0.017070848,0.005889325,0.0024313875,-0.009305366,-0.020178111,-0.0031173595,-0.0031192235,-0.0011070631,-0.0077922293,0.036090896,-0.0069047348,-0.03514597,-0.0014762314,-0.0057749883,0.004862875,0.004696923,0.0110839,-0.007916916,-0.010686432,0.001967751,0.026383983,0.01949021,0.007303084,0.032109555,0.009556554,0.0021594109,0.008846353,-0.0015807274,-0.0035477919,0.018613202,0.019813512,-0.028091004,0.0066821906,0.034206733,0.008388437,-0.0010967385,0.0054778233,0.006691087,-0.011649411,-0.0022014643,0.0069563314,-0.027411956,0.008472043,0.011623692,0.0018996306,0.011515035,0.006701802,0.015784979,-0.00037168784,0.022098957,0.015449673,0.017116398,0.011651601,-0.012966588,0.0117251435,0.025179697,-0.018124286,0.00546646,-0.0246343,-0.040221907,-0.008174592,0.019359522,-0.019129978,0.0041454225,0.0109671885,0.0036303224,-0.027971186,0.0047155824,-0.01911402,0.002727673,-0.015034505,0.021846762,-6.47174e-05,0.0035683988,0.0045168614,-0.004219802,0.010776078,-0.021737432,0.010024476,0.0030674317,-0.017077016,0.016944934,0.030146731,-0.010137755,0.0017140124,0.016364763,0.013181355,0.03149315,-0.02785081,0.0003718912,-0.0055963416,-0.0019298939,-0.0020635636,-0.018036462,0.00071759045,0.0068612974,-0.01788526,0.0212565,0.0051052757,-0.0071304697,0.015057845,-0.035296373,-0.007644779,-0.012129912,0.0014512448,-0.024682648,-0.0064267963,-0.0051441886,-0.014510188,-0.003995028,0.0031498596,0.02898567,-0.0035980775,0.0030837278,0.005614236,-0.019642916,0.005008497,0.02662028,0.019419504,0.012618347,0.019644884,-0.00533987,0.005546119,0.013277558,0.005031404,0.029779606,0.024722746,0.0056247036,0.016041873,0.012966416,-0.0043799654,0.0069909445,-0.017080601,-0.037598483,-0.014647605,0.002500037,0.03797198,0.014595757,0.012387003,0.020328987,-0.013045009,0.007192466,0.0037453691,-0.04344356,-0.0105011165,0.024842927,-0.008100762,-0.021619054,-0.032193474,-0.006261998,0.035434023,-0.0144178085,-0.00795724,0.011065083,-0.0119455345,0.016859092,-0.0011426569,0.06846647,0.011787906,-0.030345641,-0.012699338,0.038428035,0.0015877257,-0.024644399,0.008291113,-0.043606892,0.020833395,-0.010745921,0.021907236,-0.0019414988,-0.018743396,-0.0033962403,0.01623609,0.024298022,0.032365836,0.0061546834,0.011118565,0.003307667,0.016757712,-0.009542411,0.01665512,-0.046093754,-0.0014069303,0.010652697,0.002892624,0.021843249,-0.0042773318,0.0041464744,0.020073505,0.00028768808,-0.009489574,-0.017309636,0.018254273,0.00087218295,0.013156008,-0.00018033902,-0.01411105,0.023018528,-0.0122401025,0.017205268,-0.014501305,-0.01944664,-0.025569052,0.0036656605,-0.016461004,0.021128409,-0.02363081,0.012288823,0.0074261776,-0.011632396,0.009711247,-0.0016900091,-0.0010440764,-0.008645915,0.015668124,0.009232361,-0.003369826,0.0019810332,-0.004884718,-0.01657392,-0.042875096,-0.06010788,-0.01275703,-0.02539269,0.021649815,-0.011559396,0.0012019228,0.019724298,0.00015841698,-0.016245324,0.016520653,0.027810358,0.015961723,-0.009202738,-0.007761155,0.0054285466,-0.0095805805,-0.0374669,-0.0023272792,0.015276841,-0.0068194005,0.0064553926,0.015421912,-0.010779209,0.0038752828,0.005837539,0.0048697297,0.00066959276,0.01179039,0.0044082035,0.008671025,-0.0075111217,-0.008265372,0.010459295,-0.04759324,-0.016239934,-0.006927906,-0.006356796,0.0062002703,0.017450256,-0.015281692,0.018889174,-0.014597189,0.020431729,0.0062727425,-0.0031990698,0.016139029,-0.010053362,0.0010137173,-0.025769617,0.036530796,0.00073471747,-0.004802345,-0.01178706,0.02631084,0.015003104,-0.01516651,-0.009375705,-0.012092917,-5.8143224e-33,-0.006366453,-0.0030167722,-0.006941842,0.003438876,-0.05914528,-0.0091972165,-0.015876995,0.027423378,0.008507514,0.003841689,-0.0066169966,0.02359865,0.0067650615,0.0033645125,0.009870224,-0.021552827,0.012308303,0.023830662,-0.0041573034,-0.0047783568,-0.02715703,-0.00731754,0.0038614264,-0.04465646,-0.022844331,0.006589894,-0.025794297,-0.032421216,0.0117446445,-0.008763525,-0.025811162,-0.012221854,0.0059729754,0.011610466,0.0011548768,0.0048223007,0.008586343,0.013452176,-0.012795237,-0.0071380716,-0.05103449,-0.016775737,0.0032848278,-0.0025383155,0.00091444823,-0.014261302,0.022448797,-0.0072733667,-0.012523235,0.0033224795,-0.008071044,-0.007517045,-0.00435791,-0.03361892,-0.0416237,-0.0028661066,-0.0027002373,-0.013003862,-0.009229404,-0.0024747113,-0.0037327,0.021360166,-0.0101176705,0.019183598,0.013848953,0.009031328,0.039840106,0.018622112,-0.03140314,0.017106349,0.0054562665,-3.3971544e-05,-0.015930988,0.0014393162,0.011825709,-0.044545043,0.008666369,-0.008500219,-0.032198112,0.0110339355,0.012832531,0.010123346,0.012077464,-0.012336047,0.033599075,-0.016822623,-0.013467362,0.027008772,-0.0016933187,0.005923297,0.009960403,-0.013325821,-0.020208947,0.0012848915,0.012196557,-0.017727537,0.0015399045,0.014502545,0.011047507,-0.004101479,0.032873794,0.0065027233,-0.012431276,-0.008956788,0.00463764,0.010656039,-0.009323874,-0.0048124883,0.0069892313,-0.009889009,-0.00315028,0.0021774226,0.026633818,-0.004413351,-0.0015821835,-0.00041064422,0.0050014663,0.014886228,-0.006993825,0.019803863,0.023913963,0.009135517,-0.018560797,0.028927438,-0.025263388,0.00020034444,-0.04344936,-0.028960625,0.0124556925,-0.037750773,-0.016305346,-0.007855492,2.4023987e-07,-0.04849479,0.024076078,0.009092428,0.0074018943,0.028419431,-0.0009429161,-0.00090275455,0.021081766,0.00914726,-0.034435835,-0.004677614,0.01538559,0.015991868,0.0073104408,-0.020444652,-0.006624313,-0.002564506,-0.0110704675,-0.008140143,-0.023554334,0.01122645,-0.012547653,-0.001540309,0.0060935225,0.012445886,-0.0076850974,0.006215218,0.0007190136,0.015930107,-0.01792837,-0.022663716,0.019749142,-0.016046954,5.351219e-05,0.00080871984,-0.019542217,0.014885253,-0.0013190163,-0.0016586715,0.0022478986,-0.0028843794,0.04667957,0.022584084,-0.0033184323,0.009984204,-0.03346513,0.015192719,0.042374983,0.004779062,-0.015422632,0.024354689,-0.009226211,-0.030220866,0.025051609,0.0006945274,0.009939475,0.0029625373,-0.020335127,0.035527986,-0.00069069053,0.0111234225,0.013019226,-0.00064880203,0.00075788907,-0.024133427,-0.021365872,-0.03767961,1.5459016e-34,0.0054841056,0.006571861,0.0016889063,-0.008800823,-0.0025293785,-0.01032054,-0.008640801,0.0050035752,0.016512208,-0.0012291651,-0.012720161
2C-B,-0.0069488734,0.0032717625,-0.014803394,-0.019746926,0.0055711553,-0.00065712066,-0.03615117,0.009944465,-0.016863735,0.016309496,0.0030287895,0.0058832257,-0.031480573,-0.018863028,0.019262984,-0.009537328,0.003788652,0.013907736,-0.03882253,0.011159968,-0.008315872,-0.012074459,0.011845408,0.00030328706,0.01824697,-0.020553807,-0.000916557,0.022457067,0.008716967,-0.029061276,-0.015728751,0.012366803,-0.0071467403,-0.015713427,1.7260502e-06,-0.00071206305,0.0033448192,-0.0031092945,-0.015024801,0.023875147,0.009106748,0.0074673085,0.0019445773,-0.007710183,0.0003537409,0.0035001293,0.011606925,0.010755232,-0.024681363,-0.0014012763,-0.0020392344,-0.005625189,-0.025091615,-0.0053514033,0.052603588,0.025590068,-0.001399741,-0.025710138,0.040213477,-0.0167326,-0.017225428,-0.0116344625,0.009781947,0.01658766,0.030885024,0.020432845,0.005626935,-0.011402952,-0.0030851695,-0.0008230248,-0.020375894,-0.0069110245,-0.004322264,0.024372736,-0.018403275,-0.03442345,-0.013849915,-0.023381773,0.012977199,-0.0054613384,-0.010644292,0.051064655,0.010207784,-0.005985522,0.0062435614,0.010781056,0.0064035743,-0.014258946,-0.0017446661,0.007430151,-0.007969216,0.0024676246,0.0058924286,-0.0054800888,0.0037637532,-0.008807435,0.004028293,0.0082498165,0.006928096,-0.019223716,0.027189665,0.013365177,-0.024990154,0.014785646,-0.0074883513,0.0015370909,-0.029746078,-0.016578233,-0.02358861,0.022888025,-0.014852182,0.022305433,-0.0069875303,0.022125913,0.002265523,-0.019004269,-0.0009545402,-0.0057701333,-0.0051006335,0.012076564,-0.047057357,0.012542166,0.0027254827,-0.005267207,0.01954316,-0.003540328,-0.008847442,-0.0024405622,0.0057860883,-0.014008257,-0.0165051,0.0039549945,-0.020318605,-0.01270268,-0.0041377367,0.021778332,0.006144305,0.006361062,5.0116334e-05,-0.0072294604,0.017239626,0.0031349538,0.03907975,0.00531184,0.0031332707,0.0058072153,0.008398158,-0.0006156168,0.004966981,-0.014382891,-0.00046905372,0.03112503,-0.033482317,0.002398741,-0.02210665,0.016175177,0.023496723,-0.008683951,0.0052755484,0.016824568,0.012136057,0.0022506341,0.017403321,-0.0095319925,-0.01240721,0.0009694742,-0.025872106,0.0016222795,-0.021087024,0.00070770824,-0.011202083,-0.023031522,0.0041803215,0.029774034,0.004793933,0.009034861,-0.034661725,0.010036844,-0.020682475,-0.024772584,-0.006416242,0.048638694,-0.022447526,0.00293106,0.028806508,0.009288889,0.025163287,0.008004094,-0.008617,0.01603678,-0.010987027,0.009511276,-0.009838533,0.012023259,-0.0075211716,-0.012156152,0.022629015,-0.005771899,0.025455862,-0.021279287,-0.008402415,0.00748625,0.0018881512,0.03236486,-0.0055971225,-0.01320434,0.017706757,-0.017485335,0.014372445,0.037274472,-0.013931568,0.024279049,-0.0046308786,-0.0057420055,0.014274141,-0.016654827,0.013018949,0.0028242816,-0.057317607,0.01917056,-0.018807376,0.021173598,0.007444322,0.0087525565,-0.008008457,-0.029261038,0.015809456,0.0032814508,0.00062067504,-0.0007442074,-0.0007983433,0.0031068837,0.013825461,-0.014560057,-0.0062141526,0.03974541,0.00090448814,0.015752777,-0.0016461053,-0.015218939,0.018512707,-0.015557539,-0.0019072031,0.008455725,0.042263966,-0.015731702,0.004928454,0.0061175264,-0.0020898918,0.005479322,0.013677532,-9.312577e-05,-0.022943052,-0.0040188963,-0.006591105,-0.0067746933,-0.024104536,0.0034214607,0.014421351,0.017444758,0.00612894,-0.02121843,0.016417082,-0.03354415,-0.0073647075,-0.03474945,0.025588317,-0.0055011697,-0.0072139148,0.001836086,-0.0009086369,0.008795702,-0.023036724,-0.0015149594,-0.008016161,-0.0033507443,0.008209182,0.007257548,-0.0007531473,-0.0025284833,-0.007142629,-0.0054556928,-0.009033597,0.0015856236,-0.009234562,0.03106224,0.012124042,-0.013852638,0.018938875,-0.007913149,0.0054044607,-0.011065309,0.006522187,-0.016269714,-0.0016071682,0.011365935,0.015640909,0.02384888,0.0075677023,0.018890267,0.01800323,0.012890959,0.015063433,-0.0037863133,0.007913426,0.01845933,0.015244076,-0.009855023,0.0056705293,0.032387633,0.0051992973,-0.0057330644,-0.006892892,0.008718602,-0.013664194,-0.0022559192,0.014631696,-0.020186048,-0.0043787407,0.005814426,-0.0009651597,-0.003891641,0.010797262,0.009562539,-0.013543657,0.0077676876,0.016744796,0.02587712,0.016778255,-0.0018686089,0.009951679,0.010286603,-0.0056810104,-0.0046862294,0.0005981462,-0.026503868,-0.015366298,0.0056769676,-0.019277927,0.0037380701,0.01016523,-0.0004867876,-0.013192701,0.002582276,-0.019609582,0.0171342,-0.0067160577,0.021913277,-0.012831268,-0.00028969557,-0.01394074,-0.015817508,0.007778121,-0.018855732,0.008407446,-0.010569112,-0.007239594,0.0030844985,0.011402763,-0.01728885,-0.0052904175,0.0051086387,0.009221012,0.03048024,-0.0060535735,-0.0074030776,-0.00923437,-0.016115725,0.0017915918,-0.019604098,0.005930316,-0.0030176342,-0.017035548,0.0069179162,-0.00286718,0.0031549667,0.013344871,-0.036235057,-0.024082424,-0.0006418938,0.012392817,-0.030326718,-0.010247582,0.0029079034,-0.009920679,0.0015469621,0.009901208,0.027093023,-0.0015757842,-0.0030732956,0.008597483,-0.019645272,0.014459562,0.0039606793,0.01558855,0.025094396,-0.012836798,0.007154785,0.0074047516,0.009403553,0.0013765318,0.051016834,0.010220509,0.008132391,0.011407795,0.009930883,-0.006714191,0.008080502,-0.0061715785,-0.0366718,-0.012586623,0.024156932,0.027889054,0.023478312,0.02086125,0.012293183,-0.01401627,0.00048419,0.008697168,-0.047099005,-0.0036754461,0.0039289147,-0.0033850102,-0.011946488,-0.037498206,-0.007715015,0.03053539,0.0115276165,-0.0058097527,0.0037214234,-0.00774235,0.0033881313,-0.008752875,0.05423793,0.013710137,-0.038228236,-0.0052606794,0.03368959,0.0063454616,-0.022407021,0.00046225233,-0.034676157,0.018219441,-0.010218249,0.01629617,-0.0073874914,-0.013282129,-0.006314821,0.012597425,0.012592522,0.023779325,-0.008470775,-0.0069745285,0.0071257506,0.006566383,-0.010308492,0.026656145,-0.033992015,-0.017163565,0.015624192,0.0050595505,0.024743862,0.010477973,0.0067399754,0.019204533,-0.0014001136,-0.0054052705,-0.0064687077,0.004905211,-0.0024493926,0.026819978,-0.0021113574,-0.012259476,0.003740348,-0.025025029,0.0035360828,-0.013501684,0.0059354575,-0.030031754,0.0069615324,-0.0057397704,0.017391838,-0.020618893,0.028057188,0.002211595,-0.00861123,-0.0034595532,0.0028531074,0.0053692083,-0.032268167,0.021336755,0.0066179195,0.0067550647,-0.005576383,-0.004271959,-0.0067036413,-0.04004519,-0.04271057,-0.00080666953,-0.003918413,0.02436315,-0.008584064,0.0003547529,0.016877843,0.00024895882,-0.0077740843,0.007874227,0.026160732,0.00964275,-0.0017764274,-0.015862588,-0.0025942707,-0.016009452,-0.047558676,-0.0032968035,-0.0046382747,0.0046787304,-0.0040124236,0.020628145,-0.009051996,0.0024518599,-0.00017923205,0.009134264,0.0065379823,-0.0047995658,0.0049310536,0.0013547408,-0.004357845,-0.02051932,0.003952379,-0.04565533,-0.019360729,-0.019824486,0.00042026298,0.0062034656,0.0063833827,-0.0160837,0.004004731,-0.024695212,0.013406564,0.018585047,0.0014815591,0.017838638,-0.004655073,0.015079981,-0.0159487,0.025780117,0.0056809117,0.005674771,-0.027286196,0.018610138,-0.004881617,0.0046030874,-0.013639576,-0.0107350545,-5.9611974e-33,-0.0022228037,0.025442423,-0.023774019,0.010721107,-0.054904465,-0.013502484,-0.021416897,0.023763351,0.019436179,0.004435321,0.0006263636,0.011505354,0.0094624525,0.009135279,0.015306269,-0.0057677138,0.021946535,0.010514652,0.0002994438,0.0066633187,-0.018696709,-0.00080861634,0.008508334,-0.029540254,-0.010747776,0.007985906,-0.008483484,-0.01836754,-0.010004163,-0.008182757,-0.015209407,-0.020000083,0.009983023,0.019981219,0.005438551,-0.024514198,0.024084859,0.009698532,-0.008282335,-0.02468466,-0.05613432,-0.0062211286,-0.010830797,-0.013081554,0.008852619,-0.02644855,0.004820319,0.0044190376,-0.0139915785,-0.004941117,-0.011296197,-0.015044986,0.0035177807,-0.04557189,-0.024371406,-0.022742178,0.003613069,-0.002266901,-0.009068541,0.00066074415,-0.011530916,0.0045425436,-0.008023944,0.013636475,0.014170206,0.0010465746,0.059700344,0.018121708,-0.033882573,0.027217273,0.0041188058,-0.0045994343,-0.0028446598,0.010300173,-0.0051475596,-0.052441627,0.016681647,-0.0041642236,-0.023992466,0.01062726,0.018668363,0.009458326,0.008651075,-0.009101375,0.02175839,0.0012548057,-0.009315253,0.028070118,0.0010249368,0.00022887881,0.012967458,-0.01608993,-0.019094737,-0.0068335016,0.012422504,-0.01572415,-0.008652565,0.01799679,0.00055346725,-0.014266548,0.018372336,0.013652663,-0.0069307433,-0.012722606,0.006702489,0.003983551,0.002257184,-0.0028373997,0.009628521,0.00069638854,-0.0022446294,-0.0020857023,0.039024457,-0.0135190515,-0.0049619516,0.0058164652,0.013369699,0.014709934,0.002663718,0.035956156,0.026632521,-0.0014265393,-0.021177236,0.02764838,-0.017755544,0.014535798,-0.030175038,-0.015337209,0.015017517,-0.01845055,-0.0050884867,-0.007438273,2.4640408e-07,-0.052896418,0.019829012,0.006923396,0.00019827933,0.027024072,-0.010139568,-0.012894086,0.0069620865,0.011026226,-0.009684884,-0.0019841997,0.005592872,0.017017577,0.0026343837,0.010108622,-0.0071700006,0.018931145,-0.019814786,-0.0108542675,-0.0070854346,0.025109494,-0.0030671929,-0.0059564766,0.0025643543,0.014998916,0.0033499694,-0.0054864185,-0.020203399,-0.0013175121,-0.0050781304,0.006195618,0.0048671938,-0.023177486,-0.0034699312,-0.004863696,-0.023362584,0.014506926,-0.0035955682,0.0013422497,0.019460373,-0.018194469,0.035784792,0.019196767,-0.015033343,0.0041360985,-0.034416735,0.013660813,0.031945467,-0.027226407,-0.016495602,0.022505404,-0.008312718,-0.043432724,0.013939739,-0.0013484104,0.022035256,0.0077681337,-0.023283666,0.024711713,0.008298494,0.010962726,0.025347294,0.0022430525,-0.006892731,-0.023397835,-0.03275948,-0.027072089,1.4697558e-34,0.008025617,-0.0025656535,0.023726981,-0.016933916,0.0077306624,-0.006688385,-0.015825741,-0.0058020484,0.00913616,-0.0050874483,-0.015406945
